
\data\
ngram 1=7200
ngram 2=14851
ngram 3=14829

\1-grams:
-1.318531	</s>
-99	<s>	-99
-4.277138	=	-99
-4.277138	l	-99
-2.334003	一	-99
-4.088082	一万	-99
-4.204587	一万多	-99
-3.364288	一下	-99
-4.239349	一下子	-99
-4.318531	一两	-99
-2.865212	一个	-99
-4.364288	一个人	-99
-4.204587	一个半月	-99
-4.142439	一个民族	-99
-4.172403	一串	-99
-4.114411	一举	-99
-3.420904	一九	-99
-3.903558	一九九二年	-99
-4.172403	一九四一	-99
-4.277138	一二九	-99
-3.18181	一些	-99
-4.114411	一代	-99
-4.114411	一会儿	-99
-4.114411	一体	-99
-4.277138	一六	-99
-3.63729	一切	-99
-4.172403	一到	-99
-3.920591	一动	-99
-4.277138	一千	-99
-4.172403	一千一百	-99
-4.277138	一千二百二十七	-99
-4.277138	一千五	-99
-4.204587	一只	-99
-4.142439	一号	-99
-4.204587	一同	-99
-3.887167	一名	-99
-4.142439	一味	-99
-4.172403	一坐	-99
-3.399453	一块	-99
-4.142439	一块儿	-99
-3.492456	一声	-99
-3.774463	一处	-99
-3.685062	一天	-99
-4.239349	一天到晚	-99
-4.114411	一头	-99
-3.903558	一定	-99
-3.727466	一家	-99
-4.114411	一家三口	-99
-4.172403	一对	-99
-4.277138	一小时	-99
-3.920591	一带	-99
-4.142439	一幅幅	-99
-4.142439	一幢	-99
-4.277138	一幢幢	-99
-4.204587	一平	-99
-3.420904	一年	-99
-4.142439	一并	-99
-4.088082	一座	-99
-4.204587	一心一意	-99
-3.841409	一手	-99
-3.887167	一批	-99
-4.172403	一拥而上	-99
-4.277138	一排排	-99
-3.727466	一文	-99
-3.800017	一方面	-99
-4.318531	一旁	-99
-4.172403	一旦	-99
-4.239349	一时	-99
-4.318531	一曲	-99
-3.331759	一月	-99
-4.239349	一本	-99
-4.204587	一枚	-99
-3.114411	一样	-99
-3.827169	一根	-99
-4.114411	一概	-99
-4.277138	一次次	-99
-3.570343	一点	-99
-4.318531	一点儿	-99
-4.172403	一番	-99
-4.142439	一百	-99
-4.172403	一百七十四	-99
-4.142439	一百万	-99
-4.142439	一百三十三	-99
-4.142439	一百三十五	-99
-4.172403	一百三十四	-99
-4.142439	一百二	-99
-4.114411	一百四	-99
-4.364288	一百零八	-99
-3.23935	一直	-99
-4.114411	一看	-99
-3.871373	一眼	-99
-3.43204	一碗	-99
-4.364288	一篇	-99
-4.172403	一类	-99
-4.364288	一经	-99
-4.142439	一缕	-99
-3.920591	一群	-99
-4.172403	一群群	-99
-3.512351	一般	-99
-3.738747	一艘	-99
-4.142439	一行人	-99
-4.318531	一见	-99
-4.277138	一角	-99
-4.114411	一贫如洗	-99
-3.505617	一起	-99
-3.841409	一路	-99
-4.277138	一辆	-99
-4.114411	一进门	-99
-4.364288	一道	-99
-4.172403	一针	-99
-4.142439	一阵	-99
-4.239349	一阵阵	-99
-4.318531	一面镜子	-99
-4.318531	一面面	-99
-4.172403	丁	-99
-3.887167	七	-99
-4.204587	七位	-99
-4.172403	七十	-99
-4.142439	七十一	-99
-4.114411	七十万	-99
-4.204587	七十二	-99
-4.277138	七天	-99
-4.277138	七层	-99
-4.239349	七旬	-99
-3.903558	七月	-99
-4.277138	七百	-99
-4.114411	七百多	-99
-3.716471	万	-99
-4.277138	万世	-99
-3.920591	万人	-99
-3.322896	万元	-99
-4.318531	万吨级	-99
-4.114411	万宝路	-99
-4.172403	万里	-99
-4.114411	丈	-99
-3.207941	三	-99
-4.172403	三三	-99
-3.685062	三个	-99
-4.277138	三个月	-99
-4.088082	三产	-99
-4.172403	三人	-99
-3.887167	三十	-99
-3.856133	三十一日	-99
-4.277138	三十万	-99
-4.172403	三十三	-99
-4.172403	三千多	-99
-4.204587	三味	-99
-4.277138	三四点钟	-99
-4.172403	三夏	-99
-4.142439	三大	-99
-4.142439	三思而后行	-99
-4.172403	三日	-99
-4.239349	三月	-99
-4.277138	三百	-99
-4.142439	三百一十	-99
-4.204587	三百五十三	-99
-4.277138	三百六	-99
-4.142439	三皇	-99
-4.172403	三省	-99
-4.172403	三绝	-99
-4.239349	三胞胎	-99
-3.938319	三菱	-99
-4.239349	三郎	-99
-2.816104	上	-99
-4.239349	上上下下	-99
-4.114411	上下	-99
-3.578168	上了	-99
-4.114411	上交	-99
-4.239349	上前	-99
-3.856133	上午	-99
-4.142439	上半年	-99
-3.903558	上去	-99
-4.172403	上司	-99
-4.277138	上坡	-99
-4.204587	上头	-99
-3.695282	上学	-99
-3.841409	上岸	-99
-4.142439	上旬	-99
-4.142439	上月	-99
-3.938319	上来	-99
-3.903558	上校	-99
-4.364288	上楼	-99
-4.172403	上次	-99
-3.512351	上海	-99
-4.204587	上涨	-99
-3.655773	上游	-99
-4.277138	上百	-99
-3.887167	上空	-99
-4.204587	上等	-99
-4.114411	上落	-99
-4.172403	上街	-99
-4.239349	上衣	-99
-4.277138	上访	-99
-4.142439	上边	-99
-2.964422	下	-99
-4.204587	下一个	-99
-4.142439	下乡	-99
-3.920591	下决心	-99
-3.976108	下午	-99
-4.277138	下去	-99
-4.277138	下地	-99
-4.239349	下来	-99
-4.142439	下派	-99
-3.695282	下游	-99
-4.277138	下滑	-99
-4.277138	下腰	-99
-4.142439	下边	-99
-4.088082	下里巴人	-99
-4.239349	下降	-99
-4.239349	下雨	-99
-3.887167	下面	-99
-2.703634	不	-99
-3.750329	不久	-99
-4.114411	不亚于	-99
-3.327305	不仅	-99
-4.088082	不休	-99
-3.727466	不会	-99
-4.318531	不但	-99
-3.738747	不住	-99
-4.114411	不再	-99
-4.239349	不再爱你	-99
-4.318531	不准	-99
-4.172403	不到	-99
-4.318531	不动	-99
-4.114411	不及	-99
-3.655773	不可	-99
-4.204587	不可少	-99
-4.277138	不可思议	-99
-4.142439	不吃	-99
-4.142439	不同	-99
-4.277138	不喜	-99
-4.142439	不喝	-99
-4.172403	不在	-99
-4.204587	不够	-99
-4.114411	不好	-99
-4.114411	不安	-99
-4.277138	不对	-99
-4.142439	不对称	-99
-4.239349	不少地方	-99
-3.871373	不平衡	-99
-4.172403	不弃	-99
-4.277138	不当	-99
-4.364288	不得	-99
-4.239349	不得而知	-99
-4.204587	不必	-99
-4.239349	不必担心	-99
-4.204587	不忘	-99
-3.813381	不怕	-99
-4.239349	不愿	-99
-4.142439	不成	-99
-3.856133	不敢	-99
-4.239349	不文明	-99
-4.277138	不料	-99
-4.172403	不断	-99
-3.938319	不断地	-99
-3.705747	不易	-99
-3.665318	不是	-99
-4.114411	不是我	-99
-4.142439	不景气	-99
-4.142439	不曾	-99
-4.239349	不朽	-99
-4.318531	不比	-99
-4.239349	不满	-99
-4.142439	不灭	-99
-4.239349	不用	-99
-4.204587	不用问	-99
-4.318531	不畏	-99
-3.562656	不知	-99
-3.841409	不知道	-99
-4.172403	不稳定	-99
-4.142439	不穿	-99
-4.239349	不符合	-99
-4.114411	不算	-99
-3.938319	不肯	-99
-4.277138	不胜枚举	-99
-3.269313	不能	-99
-4.277138	不能不	-99
-4.114411	不舒服	-99
-3.774463	不要	-99
-4.088082	不要忽视	-99
-4.204587	不见	-99
-4.239349	不记得	-99
-4.239349	不论怎样	-99
-3.695282	不说	-99
-4.204587	不赞成	-99
-3.887167	不足	-99
-3.903558	不过	-99
-4.239349	不远处	-99
-4.204587	不闻	-99
-4.142439	不露	-99
-3.813381	不顾	-99
-2.430913	与	-99
-3.841409	与其	-99
-4.239349	与此同时	-99
-4.142439	丑	-99
-4.114411	丑陋	-99
-3.498987	专业	-99
-4.142439	专业户	-99
-4.172403	专业组	-99
-4.172403	专利	-99
-4.239349	专卖局	-99
-3.547679	专家	-99
-4.318531	专家组	-99
-4.172403	专栏	-99
-4.142439	专款	-99
-3.938319	专用	-99
-4.277138	专用车	-99
-4.172403	专程	-99
-4.142439	专营	-99
-4.142439	专门	-99
-3.526139	且	-99
-4.172403	世	-99
-4.172403	世珍	-99
-3.578168	世界	-99
-4.142439	世界上	-99
-4.088082	世界遗产	-99
-4.142439	世纪	-99
-3.856133	业	-99
-3.467273	业余	-99
-3.410046	业务	-99
-4.114411	丛	-99
-3.774463	东	-99
-4.239349	东三环	-99
-3.938319	东京	-99
-4.114411	东南亚	-99
-4.114411	东奔西跑	-99
-4.204587	东山	-99
-4.172403	东山区	-99
-4.239349	东岸	-99
-4.172403	东扩	-99
-4.017501	东方	-99
-4.239349	东楼	-99
-4.114411	东门外	-99
-3.920591	丝	-99
-3.976108	丝厂	-99
-4.172403	丝绸之路	-99
-3.920591	丢	-99
-4.172403	丢下	-99
-2.927596	两	-99
-3.996311	两个	-99
-3.976108	两人	-99
-4.239349	两位	-99
-4.142439	两侧	-99
-4.364288	两元钱	-99
-4.318531	两兄弟	-99
-4.415441	两千	-99
-4.142439	两千三百	-99
-4.364288	两千多	-99
-4.415441	两只	-99
-4.277138	两天	-99
-4.277138	两头	-99
-4.142439	两家	-99
-4.204587	两局	-99
-4.277138	两岸	-99
-4.239349	两年	-99
-4.088082	两旁	-99
-4.142439	两次	-99
-4.239349	两派	-99
-3.996311	两眼	-99
-3.920591	两种	-99
-3.586137	严	-99
-4.318531	严严实实	-99
-4.172403	严冬	-99
-4.142439	严厉打击	-99
-4.172403	严密	-99
-4.239349	严格	-99
-3.871373	严禁	-99
-4.088082	严肃	-99
-3.594255	严重	-99
-3.920591	丧	-99
-4.114411	丧失	-99
-4.277138	丧生	-99
-4.142439	丧身	-99
-3.254073	个	-99
-4.204587	个人	-99
-3.646433	个体	-99
-4.172403	个别	-99
-2.676066	中	-99
-4.172403	中医	-99
-3.841409	中医药	-99
-3.871373	中华	-99
-4.318531	中华人民共和国	-99
-4.172403	中原	-99
-3.23935	中国	-99
-4.142439	中国政府	-99
-4.239349	中国科学院	-99
-4.239349	中国足球	-99
-4.204587	中国队	-99
-3.738747	中央	-99
-4.017501	中央军委	-99
-3.976108	中学	-99
-4.172403	中将	-99
-4.142439	中小学	-99
-3.871373	中年	-99
-3.695282	中心	-99
-3.976108	中文	-99
-4.318531	中方	-99
-3.871373	中旬	-99
-3.841409	中秋	-99
-4.277138	中等	-99
-4.172403	中老年	-99
-4.142439	中间	-99
-4.114411	丰功	-99
-4.204587	丰富	-99
-4.172403	丰收	-99
-4.088082	丰碑	-99
-3.996311	串	-99
-4.277138	临了	-99
-4.239349	临床医学	-99
-3.903558	临时	-99
-2.375531	为	-99
-3.261626	为了	-99
-3.887167	为什么	-99
-4.277138	为何	-99
-4.277138	为准	-99
-4.239349	为有	-99
-3.903558	为由	-99
-4.204587	主产	-99
-3.727466	主人	-99
-4.277138	主任	-99
-3.856133	主动	-99
-4.114411	主峰	-99
-4.172403	主张	-99
-4.277138	主持	-99
-4.277138	主旋律	-99
-4.172403	主桥	-99
-4.204587	主犯	-99
-3.665318	主管	-99
-3.461198	主要	-99
-4.204587	主要原因	-99
-4.063258	丽日	-99
-4.204587	丽芳	-99
-4.172403	丽雅	-99
-4.318531	举办	-99
-4.142439	举措	-99
-4.277138	举止	-99
-3.695282	举行	-99
-3.871373	举起	-99
-4.172403	举重	-99
-4.114411	乃	-99
-3.887167	久	-99
-4.063258	久居	-99
-4.142439	久而久之	-99
-4.204587	么事	-99
-4.114411	义务	-99
-4.142439	义演	-99
-4.204587	义齿	-99
-2.962505	之	-99
-4.142439	之一	-99
-3.685062	之中	-99
-3.841409	之后	-99
-3.762228	之外	-99
-4.172403	之夜	-99
-4.172403	之类	-99
-3.956803	之间	-99
-4.172403	之风	-99
-3.976108	乌	-99
-4.239349	乌克兰	-99
-4.277138	乌兹别克斯坦	-99
-4.114411	乌尔	-99
-4.204587	乌金	-99
-4.172403	乎	-99
-4.142439	乐团	-99
-4.277138	乐得	-99
-4.277138	乒乓	-99
-3.887167	乒乓球	-99
-3.996311	乔	-99
-4.277138	乔森	-99
-4.172403	乖张	-99
-4.172403	乘	-99
-4.114411	乘凉	-99
-4.239349	乘机	-99
-4.204587	乙型肝炎	-99
-4.204587	乙肝	-99
-4.172403	九	-99
-4.172403	九三年	-99
-4.204587	九五年	-99
-4.114411	九十七	-99
-4.114411	九四年	-99
-3.841409	九时	-99
-4.204587	九月	-99
-4.204587	九段	-99
-2.246281	也	-99
-4.239349	也好	-99
-3.163195	也是	-99
-3.871373	也有	-99
-3.976108	也罢	-99
-4.239349	习惯	-99
-3.498987	乡	-99
-4.142439	乡镇	-99
-3.996311	书	-99
-4.239349	书写	-99
-4.114411	书呆子	-99
-4.204587	书屋	-99
-4.239349	书市	-99
-4.277138	书报	-99
-4.277138	书画家	-99
-4.142439	书稿	-99
-4.088082	书籍	-99
-4.318531	书记	-99
-3.716471	买	-99
-3.389112	乱	-99
-4.142439	乱七八糟	-99
-4.114411	乱云	-99
-4.172403	乱说	-99
-4.172403	乱采	-99
-3.996311	乳	-99
-4.318531	乳母	-99
-2.044835	了	-99
-4.142439	了解一下	-99
-3.956803	予以	-99
-3.628335	争夺	-99
-4.142439	争抢	-99
-4.364288	争相	-99
-4.318531	争议	-99
-3.920591	事	-99
-4.142439	事业	-99
-4.172403	事件	-99
-4.277138	事务	-99
-4.172403	事物	-99
-4.239349	事迹	-99
-2.931141	二	-99
-4.239349	二七	-99
-3.695282	二个	-99
-4.239349	二人	-99
-4.172403	二元	-99
-4.277138	二八	-99
-3.340807	二十	-99
-4.204587	二十一	-99
-4.318531	二十一世纪	-99
-4.142439	二十一日	-99
-4.142439	二十七	-99
-4.277138	二十七日	-99
-4.277138	二十万	-99
-4.142439	二十三	-99
-3.827169	二十九日	-99
-3.738747	二十二	-99
-4.318531	二十五	-99
-4.172403	二十八	-99
-4.142439	二十六	-99
-3.976108	二十六日	-99
-4.204587	二十四	-99
-4.114411	二千	-99
-4.204587	二哥	-99
-4.172403	二团	-99
-4.239349	二嫂	-99
-4.172403	二小姐	-99
-3.242984	二月	-99
-4.142439	二期	-99
-4.318531	二林	-99
-4.017501	二毛	-99
-4.277138	二氧化硫	-99
-4.277138	二氧化碳	-99
-3.856133	二百	-99
-4.142439	二百九十一	-99
-4.204587	二百五十五	-99
-3.976108	二秒	-99
-4.239349	二连	-99
-4.277138	二零零零	-99
-2.922331	于	-99
-4.318531	于心	-99
-4.142439	于是	-99
-4.142439	于是乎	-99
-4.172403	于此	-99
-4.277138	亏	-99
-3.359489	云	-99
-3.841409	云云	-99
-3.903558	云南	-99
-4.239349	云团	-99
-4.142439	云层	-99
-4.114411	云母	-99
-4.142439	云雨	-99
-3.716471	云霞	-99
-3.235745	五	-99
-4.142439	五万	-99
-4.239349	五万五千五百五十五	-99
-3.856133	五个	-99
-4.239349	五个月	-99
-4.114411	五人	-99
-3.871373	五亿	-99
-4.415441	五六	-99
-4.318531	五六年	-99
-3.871373	五十	-99
-4.172403	五十八	-99
-4.204587	五千四百五十	-99
-4.114411	五味	-99
-4.142439	五四运动	-99
-4.239349	五国	-99
-4.172403	五大	-99
-3.800017	五岳	-99
-3.920591	五年	-99
-4.239349	五年内	-99
-3.841409	五月	-99
-4.204587	五百	-99
-4.318531	五项	-99
-4.114411	五香	-99
-3.602527	井	-99
-4.142439	井口	-99
-3.871373	亚	-99
-3.762228	亚军	-99
-3.920591	亚洲	-99
-4.277138	亚特兰大	-99
-4.172403	亚硝胺	-99
-4.142439	亚红	-99
-4.239349	亚美	-99
-3.920591	亚美尼亚	-99
-4.142439	亚裔	-99
-3.727466	些	-99
-4.142439	亟待	-99
-3.750329	交	-99
-4.142439	交易	-99
-4.142439	交火	-99
-4.142439	交织	-99
-4.172403	交谈	-99
-4.142439	交通	-99
-4.318531	交配	-99
-4.277138	交错	-99
-4.017501	亦	-99
-3.956803	产	-99
-4.318531	产出	-99
-3.727466	产品	-99
-4.063258	产品质量	-99
-4.239349	产妇	-99
-4.204587	产权	-99
-3.841409	产生	-99
-4.172403	产量	-99
-4.204587	亨德森	-99
-3.43204	亩	-99
-4.204587	亩产	-99
-4.172403	享受	-99
-4.114411	享年	-99
-4.114411	享用	-99
-4.114411	享誉	-99
-4.172403	亭	-99
-4.239349	亭子	-99
-4.277138	亮	-99
-3.903558	亲	-99
-3.920591	亲人	-99
-3.903558	亲切	-99
-4.142439	亲属	-99
-4.277138	亲手	-99
-3.920591	亲朋	-99
-4.172403	亲缘	-99
-4.088082	亲近	-99
-2.65483	人	-99
-4.142439	人为	-99
-4.204587	人代会	-99
-4.239349	人们	-99
-3.646433	人体	-99
-4.277138	人口	-99
-3.221621	人员	-99
-4.277138	人和	-99
-4.088082	人均	-99
-4.239349	人士	-99
-4.088082	人声鼎沸	-99
-3.871373	人家	-99
-4.239349	人工	-99
-4.142439	人往	-99
-4.142439	人愿	-99
-3.63729	人才	-99
-4.114411	人次	-99
-3.887167	人民	-99
-4.204587	人民大会堂	-99
-4.318531	人民政府	-99
-3.695282	人类	-99
-4.277138	人群	-99
-4.114411	人选	-99
-4.172403	人间	-99
-4.204587	什	-99
-3.610961	什么	-99
-3.856133	仁	-99
-3.841409	仅	-99
-3.289147	今天	-99
-4.277138	今天下午	-99
-3.533201	今年	-99
-4.172403	今早	-99
-4.239349	今晚	-99
-4.172403	介绍	-99
-4.277138	介绍信	-99
-3.228626	仍	-99
-4.142439	仍是	-99
-4.277138	仍未	-99
-4.172403	仍然	-99
-2.688103	从	-99
-4.114411	从中	-99
-3.705747	从事	-99
-4.318531	从前	-99
-4.277138	从古到今	-99
-4.114411	从容	-99
-4.172403	从小	-99
-4.204587	从教	-99
-4.277138	从未	-99
-4.277138	从来	-99
-4.114411	从此	-99
-4.172403	从而	-99
-4.204587	从零开始	-99
-4.142439	仓	-99
-4.114411	仓库	-99
-4.239349	仓皇	-99
-4.318531	仔	-99
-2.356161	他	-99
-4.172403	他乡	-99
-4.277138	他人	-99
-2.809328	他们	-99
-4.114411	他说	-99
-4.114411	付与	-99
-4.172403	仙	-99
-4.142439	代	-99
-3.594255	代表	-99
-3.602527	令	-99
-3.920591	令人	-99
-2.651078	以	-99
-4.142439	以下	-99
-3.586137	以为	-99
-4.142439	以前	-99
-3.887167	以及	-99
-3.856133	以后	-99
-3.903558	以外	-99
-4.277138	以往	-99
-4.277138	以来	-99
-4.142439	以示	-99
-3.976108	仪式	-99
-3.340807	们	-99
-4.277138	仰卧	-99
-4.277138	仰卧起坐	-99
-4.088082	仰慕	-99
-4.277138	仰望天空	-99
-4.142439	仰面	-99
-4.277138	仲尼	-99
-3.996311	件	-99
-4.017501	价	-99
-3.871373	价格	-99
-3.685062	任	-99
-4.114411	任何	-99
-4.364288	任职	-99
-3.675078	份	-99
-4.142439	仿制	-99
-3.194679	企业	-99
-4.318531	企业形象	-99
-4.142439	企业文化	-99
-4.142439	企图	-99
-4.239349	伊	-99
-4.114411	伊始	-99
-4.277138	伊拉克	-99
-4.172403	伊斯兰教	-99
-4.239349	伊朗	-99
-3.887167	伍	-99
-4.239349	休	-99
-4.277138	休息室	-99
-3.675078	众	-99
-4.364288	众生	-99
-3.455208	优	-99
-4.277138	优先	-99
-4.114411	优势	-99
-4.204587	优点	-99
-3.956803	优秀	-99
-4.142439	优质	-99
-4.239349	优越	-99
-3.281104	会	-99
-4.204587	会上	-99
-4.172403	会场	-99
-4.277138	会心一笑	-99
-3.938319	会见	-99
-4.114411	会计	-99
-4.277138	会议	-99
-4.277138	会谈	-99
-4.204587	伞	-99
-4.239349	伞降	-99
-3.827169	伟	-99
-3.665318	传	-99
-4.239349	传开	-99
-4.277138	传承	-99
-4.277138	传授	-99
-4.172403	传来	-99
-4.318531	传神	-99
-3.903558	传统	-99
-4.172403	伢子	-99
-4.172403	伤	-99
-4.318531	伤心地	-99
-4.114411	伤残	-99
-4.114411	伦	-99
-4.114411	伦敦	-99
-4.142439	伦次	-99
-4.277138	伪劣	-99
-4.172403	伪造	-99
-4.172403	伯	-99
-3.774463	估计	-99
-4.172403	伴	-99
-3.547679	似	-99
-3.533201	似乎	-99
-3.903558	似的	-99
-2.781972	但	-99
-3.813381	但愿	-99
-3.738747	但是	-99
-3.340807	位	-99
-4.172403	位于	-99
-3.675078	低	-99
-4.142439	低于	-99
-4.114411	低平	-99
-4.172403	低沉	-99
-3.976108	低温	-99
-3.54038	住	-99
-4.114411	住进	-99
-4.114411	住院治疗	-99
-3.956803	佐	-99
-4.172403	体内	-99
-4.172403	体外	-99
-4.142439	体弱	-99
-4.088082	体现	-99
-3.293225	体育	-99
-4.239349	体育中心	-99
-4.114411	体育场	-99
-4.318531	体质	-99
-4.318531	体贴入微	-99
-3.665318	体验	-99
-3.938319	何	-99
-4.318531	何某	-99
-4.172403	何物	-99
-3.976108	余	-99
-4.239349	余地	-99
-4.277138	余音	-99
-4.088082	余额	-99
-4.142439	余香	-99
-4.088082	佚	-99
-3.800017	佛	-99
-4.114411	佛手	-99
-4.142439	佛教	-99
-3.976108	佛法	-99
-3.33626	作	-99
-3.996311	作业	-99
-4.142439	作业本	-99
-3.903558	作为	-99
-4.239349	作价	-99
-3.787052	作品	-99
-4.277138	作家	-99
-4.204587	作对	-99
-4.364288	作文	-99
-3.727466	作用	-99
-4.277138	作画	-99
-4.239349	作美	-99
-3.106343	你	-99
-3.903558	你们	-99
-4.142439	佤	-99
-4.172403	佳作	-99
-4.142439	佳肴	-99
-4.239349	佻	-99
-3.14244	使	-99
-4.277138	使人	-99
-3.379012	使用	-99
-4.114411	使用方法	-99
-4.172403	使用权	-99
-4.239349	例会	-99
-4.142439	例子	-99
-3.856133	供	-99
-4.277138	供应	-99
-3.856133	依	-99
-4.277138	依据	-99
-4.204587	依法	-99
-3.841409	依然	-99
-4.063258	依靠	-99
-4.204587	侠	-99
-4.204587	侦查员	-99
-4.142439	侧	-99
-4.172403	侨	-99
-4.277138	侬	-99
-3.903558	侯	-99
-4.172403	侵蚀	-99
-3.139554	便	-99
-4.114411	便民	-99
-3.841409	促	-99
-3.533201	俄	-99
-4.088082	俄共	-99
-4.318531	俄国	-99
-4.142439	俄方	-99
-3.903558	俄罗斯	-99
-3.938319	俄语	-99
-4.172403	俊	-99
-4.142439	俊华	-99
-4.142439	俏	-99
-3.492456	俗	-99
-3.920591	俗称	-99
-4.114411	保	-99
-4.239349	保养	-99
-4.239349	保存	-99
-4.114411	保存在	-99
-3.856133	保护	-99
-4.114411	保护伞	-99
-4.239349	保持	-99
-4.204587	保留	-99
-4.114411	保税区	-99
-3.976108	保证	-99
-4.277138	保重	-99
-4.142439	保长	-99
-4.318531	保险	-99
-3.705747	信	-99
-4.239349	信佛	-99
-4.364288	信徒	-99
-4.239349	信息业	-99
-4.172403	信用卡	-99
-3.856133	俩	-99
-4.142439	俩位	-99
-4.239349	俩几	-99
-3.473433	修	-99
-4.114411	修修补补	-99
-4.277138	修养	-99
-4.204587	修复	-99
-4.172403	修改	-99
-4.114411	修理	-99
-3.903558	修筑	-99
-4.114411	修配	-99
-3.956803	修饰	-99
-4.277138	俯卧	-99
-4.172403	俱	-99
-4.114411	俱乐部	-99
-4.114411	倍	-99
-4.172403	倏	-99
-4.277138	倒	-99
-4.239349	倒下	-99
-4.277138	倒出	-99
-4.172403	候选人	-99
-4.277138	倚	-99
-4.142439	倚重	-99
-4.239349	借	-99
-4.239349	倡议	-99
-4.277138	倩	-99
-4.204587	债	-99
-3.705747	债务	-99
-3.903558	债权	-99
-4.204587	债权人	-99
-4.277138	值班	-99
-4.172403	值班员	-99
-4.172403	值班室	-99
-4.277138	倾	-99
-4.142439	假冒	-99
-4.114411	假如	-99
-4.114411	假牙	-99
-4.142439	假设	-99
-4.277138	假话	-99
-4.114411	偏	-99
-4.239349	偏偏	-99
-4.114411	偏要	-99
-4.277138	偕	-99
-3.254073	做	-99
-4.114411	做为	-99
-4.172403	做人	-99
-4.318531	做做	-99
-4.088082	做好	-99
-4.172403	做菜	-99
-4.277138	停下	-99
-4.277138	停下来	-99
-3.920591	停止	-99
-4.172403	停火	-99
-3.856133	健	-99
-4.277138	健儿	-99
-4.318531	健康	-99
-4.142439	偶尔	-99
-4.239349	偶而	-99
-3.956803	偷	-99
-4.318531	傅	-99
-4.318531	傍	-99
-3.903558	傍晚	-99
-4.142439	储备	-99
-4.088082	傩	-99
-4.277138	傲雪	-99
-3.246649	像	-99
-4.277138	僧人	-99
-4.142439	僵	-99
-3.63729	儿	-99
-4.172403	儿女	-99
-3.956803	儿媳	-99
-3.727466	儿子	-99
-3.956803	儿童	-99
-4.204587	允许	-99
-3.039777	元	-99
-4.204587	元康	-99
-4.277138	元月	-99
-4.114411	兄	-99
-4.172403	兄弟	-99
-4.088082	充溢	-99
-3.827169	充满	-99
-3.727466	先	-99
-4.277138	先后	-99
-3.887167	先是	-99
-3.750329	先生	-99
-4.114411	先进	-99
-4.172403	先锋派	-99
-3.646433	光	-99
-4.142439	光影	-99
-4.142439	光波	-99
-3.920591	光洁	-99
-4.204587	光洁度	-99
-4.277138	光溜溜	-99
-4.172403	光环	-99
-4.114411	光盘	-99
-4.239349	光耀	-99
-4.172403	光膀子	-99
-4.239349	光芒	-99
-4.204587	光荣	-99
-4.142439	光谱	-99
-4.239349	光顾	-99
-3.903558	克	-99
-4.239349	克什米尔	-99
-4.114411	克斯	-99
-4.142439	克林顿	-99
-4.142439	免于	-99
-4.172403	免得	-99
-4.142439	兑现	-99
-4.142439	兔	-99
-3.841409	兔子	-99
-4.204587	党中央	-99
-4.277138	党建	-99
-4.277138	党支部	-99
-3.685062	入	-99
-4.172403	入室	-99
-4.142439	入海	-99
-4.172403	入网	-99
-3.257833	全	-99
-3.887167	全体	-99
-4.239349	全体员工	-99
-4.204587	全党	-99
-4.239349	全剧	-99
-4.277138	全副武装	-99
-3.856133	全厂	-99
-4.142439	全县	-99
-3.44347	全国	-99
-4.204587	全国各地	-99
-4.142439	全天候	-99
-4.364288	全家	-99
-4.172403	全文	-99
-4.318531	全有	-99
-4.239349	全村	-99
-4.239349	全椒县	-99
-4.318531	全然	-99
-4.318531	全球	-99
-4.142439	全省	-99
-4.204587	全能	-99
-3.738747	全部	-99
-4.318531	全都	-99
-4.142439	全院	-99
-4.204587	全面	-99
-4.142439	全额	-99
-3.426436	八	-99
-3.938319	八一	-99
-4.239349	八位	-99
-4.204587	八十	-99
-4.204587	八十五	-99
-4.142439	八十分	-99
-4.277138	八卦	-99
-4.277138	八四年	-99
-4.239349	八强	-99
-4.172403	八旗	-99
-3.920591	八日	-99
-3.871373	八月	-99
-4.088082	八百	-99
-4.277138	八路军	-99
-3.63729	公	-99
-3.841409	公主	-99
-3.956803	公元前	-99
-4.204587	公共	-99
-3.492456	公司	-99
-4.204587	公安局	-99
-4.142439	公寓	-99
-4.318531	公报	-99
-3.774463	公斤	-99
-4.204587	公约	-99
-4.204587	公路	-99
-4.277138	公里	-99
-3.257833	六	-99
-4.277138	六七	-99
-4.318531	六万	-99
-4.277138	六个月	-99
-4.172403	六人	-99
-3.602527	六十	-99
-4.277138	六千	-99
-4.239349	六家	-99
-4.114411	六岁	-99
-3.976108	六年	-99
-4.239349	六百	-99
-4.277138	六百三十	-99
-3.486022	共	-99
-4.277138	共产党员	-99
-4.239349	共享	-99
-4.204587	共创	-99
-4.204587	共同	-99
-3.887167	共同努力	-99
-4.239349	共同探讨	-99
-4.239349	共和	-99
-4.239349	共和党	-99
-4.088082	共和国	-99
-4.239349	共建	-99
-4.277138	共有	-99
-4.114411	共生	-99
-4.204587	共计	-99
-3.887167	关	-99
-3.856133	关于	-99
-4.172403	关心	-99
-3.938319	关怀备至	-99
-4.114411	关注	-99
-4.142439	关照	-99
-4.114411	关税	-99
-3.512351	关系	-99
-4.204587	关进	-99
-4.142439	关闭	-99
-4.239349	兴起	-99
-4.172403	兴趣	-99
-3.049018	其	-99
-3.404717	其中	-99
-4.239349	其他	-99
-4.172403	其他费用	-99
-4.142439	其它	-99
-4.114411	其实	-99
-4.277138	其貌不扬	-99
-4.277138	其间	-99
-3.665318	具有	-99
-4.277138	典礼	-99
-4.172403	兹	-99
-3.420904	养	-99
-4.172403	养女	-99
-4.239349	养成	-99
-3.903558	养殖	-99
-4.277138	养殖业	-99
-3.841409	养殖技术	-99
-4.142439	养牛	-99
-4.204587	养病	-99
-3.813381	养育	-99
-3.705747	养鱼	-99
-4.239349	兼有	-99
-4.277138	兽	-99
-4.172403	兽行	-99
-2.954919	内	-99
-4.172403	内乱	-99
-4.142439	内务	-99
-4.318531	内向	-99
-4.239349	内地	-99
-4.172403	内外交困	-99
-3.750329	内容	-99
-4.142439	内涵	-99
-4.142439	内蒙古	-99
-3.695282	内部	-99
-3.555103	冈	-99
-4.114411	冉	-99
-3.578168	再	-99
-4.277138	再有	-99
-4.239349	再次	-99
-3.856133	冒出	-99
-4.277138	冒雨	-99
-4.017501	写	-99
-3.43204	军	-99
-3.938319	军事	-99
-4.114411	军人	-99
-3.920591	军区	-99
-4.114411	军营	-99
-3.903558	军队	-99
-4.239349	军饷	-99
-3.512351	农	-99
-3.841409	农业	-99
-4.172403	农作物	-99
-4.318531	农户	-99
-4.204587	农机具	-99
-3.570343	农村	-99
-3.191426	农民	-99
-4.172403	农用	-99
-4.114411	农艺	-99
-4.142439	农资	-99
-3.841409	农转非	-99
-3.856133	冠军	-99
-4.114411	冤枉	-99
-4.114411	冬	-99
-3.841409	冬奥会	-99
-4.172403	冬暖	-99
-3.705747	冯	-99
-4.239349	冰	-99
-4.114411	冰柜	-99
-4.204587	冲	-99
-4.204587	冲减	-99
-4.277138	冲向	-99
-3.727466	冲突	-99
-4.172403	冲进	-99
-4.114411	决不能	-99
-4.114411	决口	-99
-3.578168	决定	-99
-4.204587	决策	-99
-4.172403	决议	-99
-4.142439	决议案	-99
-3.956803	决赛	-99
-4.114411	冶炼	-99
-4.142439	冷冷	-99
-4.114411	冷冻	-99
-4.114411	冷战	-99
-4.142439	冷落	-99
-4.114411	冷藏	-99
-4.142439	冷轧	-99
-4.172403	冷酷	-99
-4.239349	凄惨	-99
-4.114411	凄然	-99
-3.887167	准	-99
-4.204587	准则	-99
-3.610961	准备	-99
-4.142439	准确	-99
-4.063258	凉	-99
-3.871373	凋谢	-99
-3.938319	凌晨	-99
-3.976108	减	-99
-4.088082	减去	-99
-3.492456	减少	-99
-3.486022	减肥	-99
-4.142439	减肥药	-99
-3.856133	凑	-99
-4.063258	凑合	-99
-4.239349	凑热闹	-99
-4.239349	凑近	-99
-4.172403	凝望	-99
-3.856133	凝重	-99
-3.455208	几	-99
-3.903558	几个	-99
-3.903558	几个月	-99
-3.827169	几乎	-99
-4.114411	几天	-99
-4.142439	几年前	-99
-4.277138	几百	-99
-3.675078	凡	-99
-4.114411	凭	-99
-4.114411	凭什么	-99
-4.277138	凭栏	-99
-4.318531	凯歌	-99
-4.318531	凶恶	-99
-3.705747	凶手	-99
-4.204587	凶杀	-99
-4.239349	凶狠	-99
-3.191426	出	-99
-4.204587	出于	-99
-3.727466	出去	-99
-4.142439	出发	-99
-4.204587	出口	-99
-4.142439	出场	-99
-4.277138	出场费	-99
-4.172403	出外	-99
-4.277138	出席	-99
-3.685062	出来	-99
-4.172403	出洋	-99
-4.142439	出海	-99
-4.239349	出版	-99
-4.239349	出版社	-99
-3.903558	出现	-99
-4.114411	出生	-99
-4.277138	出门	-99
-4.114411	出阁	-99
-4.142439	出面	-99
-4.239349	击伤	-99
-4.239349	击沉	-99
-3.956803	分为	-99
-3.51919	分别	-99
-4.318531	分外	-99
-4.114411	分布	-99
-4.239349	分心	-99
-4.204587	分摊	-99
-4.277138	分获	-99
-4.239349	分行	-99
-4.415441	分钱	-99
-4.277138	切	-99
-4.142439	切尔	-99
-4.204587	切片	-99
-4.142439	切碎	-99
-4.172403	刊登	-99
-4.204587	划	-99
-4.142439	划分	-99
-4.114411	划时代	-99
-4.114411	划着	-99
-4.239349	划破	-99
-4.318531	列宁	-99
-4.204587	列车	-99
-4.172403	列队	-99
-3.269313	刘	-99
-4.277138	刘东	-99
-4.277138	刘云山	-99
-4.204587	刘小光	-99
-4.142439	刘永	-99
-4.277138	刘海	-99
-4.142439	刘玉	-99
-3.887167	刘胜	-99
-4.204587	刘进	-99
-4.277138	刘邦	-99
-3.139554	则	-99
-3.750329	刚	-99
-4.239349	刚刚	-99
-4.114411	刚巧	-99
-4.142439	刚才	-99
-4.142439	创作	-99
-4.277138	创办	-99
-3.956803	创建	-99
-4.142439	创造	-99
-4.204587	初	-99
-3.920591	初二	-99
-3.738747	判处	-99
-4.172403	判定	-99
-4.239349	利	-99
-4.239349	利于	-99
-3.705747	利润	-99
-3.486022	利用	-99
-4.239349	利益	-99
-4.172403	利税	-99
-3.562656	别	-99
-3.903558	别人	-99
-4.204587	别国	-99
-4.142439	别墅	-99
-4.364288	别小看	-99
-3.887167	别是	-99
-4.114411	别有用心	-99
-4.172403	别样	-99
-4.239349	别的	-99
-3.903558	别致	-99
-3.63729	刮	-99
-2.739892	到	-99
-3.13101	到了	-99
-4.172403	到期	-99
-4.277138	到达	-99
-3.586137	制	-99
-3.827169	制作	-99
-4.063258	制品厂	-99
-4.204587	制定	-99
-4.172403	制止	-99
-4.142439	制片	-99
-4.277138	刷	-99
-4.172403	刺	-99
-4.142439	刺伤	-99
-4.239349	刻意	-99
-4.142439	刻苦	-99
-4.114411	剌	-99
-3.331759	前	-99
-4.172403	前卫	-99
-3.787052	前往	-99
-4.172403	前景	-99
-3.841409	前进	-99
-4.277138	剧	-99
-4.239349	剧中	-99
-4.114411	剧团	-99
-3.903558	剧目	-99
-4.114411	剧院	-99
-3.578168	副	-99
-3.750329	副主席	-99
-4.142439	副官	-99
-4.239349	力	-99
-3.920591	力量	-99
-4.318531	劝说	-99
-4.142439	劝阻	-99
-4.318531	办	-99
-4.142439	办案	-99
-3.871373	办法	-99
-4.318531	办起	-99
-4.114411	功	-99
-4.114411	功力	-99
-4.142439	功夫	-99
-4.204587	功能	-99
-4.142439	加人	-99
-4.114411	加工	-99
-3.586137	加强	-99
-3.841409	加拿大	-99
-4.142439	加盟	-99
-4.204587	加糖	-99
-4.172403	加运费	-99
-4.142439	加速	-99
-4.204587	加里	-99
-4.318531	务	-99
-4.114411	务必	-99
-3.695282	劣	-99
-4.114411	动	-99
-3.762228	动作	-99
-3.903558	动物	-99
-4.277138	动用	-99
-4.277138	动脉	-99
-4.239349	助	-99
-4.277138	助兴	-99
-4.172403	努力	-99
-4.114411	努力做到	-99
-4.364288	劲儿	-99
-3.655773	劳务	-99
-4.318531	劳动模范	-99
-4.114411	劳模	-99
-4.142439	劳累	-99
-3.871373	勃勃	-99
-4.239349	勇斗	-99
-4.204587	勇猛	-99
-4.114411	勘探	-99
-4.142439	募捐	-99
-4.277138	勤于	-99
-4.114411	勤劳	-99
-4.277138	勾	-99
-4.172403	勾引	-99
-4.277138	勿忘	-99
-4.277138	勿忘我	-99
-4.114411	匀称	-99
-3.996311	包	-99
-4.239349	包围	-99
-4.204587	包庇	-99
-3.903558	包括	-99
-4.114411	包袱	-99
-4.204587	包装	-99
-4.239349	包装物	-99
-3.841409	匈	-99
-3.938319	匈奴	-99
-4.239349	匕首	-99
-3.547679	化	-99
-3.841409	化合	-99
-4.142439	化学	-99
-3.903558	化学武器	-99
-4.142439	化身	-99
-4.172403	北	-99
-3.602527	北京	-99
-4.239349	北园	-99
-4.172403	北城	-99
-3.841409	北方	-99
-4.239349	北爱尔兰	-99
-3.938319	北约	-99
-3.976108	北部	-99
-3.021866	区	-99
-4.277138	区党委	-99
-3.856133	区内	-99
-3.602527	区别	-99
-4.088082	区别对待	-99
-4.142439	区域	-99
-3.887167	区委书记	-99
-3.871373	区长	-99
-3.938319	医	-99
-3.938319	医学	-99
-4.239349	医护人员	-99
-4.364288	医治	-99
-3.555103	医生	-99
-4.204587	医疗费	-99
-3.211321	医院	-99
-3.037498	十	-99
-3.787052	十一	-99
-3.956803	十一日	-99
-4.172403	十一月	-99
-4.239349	十七岁	-99
-4.277138	十万	-99
-4.277138	十三四	-99
-4.088082	十三日	-99
-3.547679	十个	-99
-4.142439	十九	-99
-3.695282	十二	-99
-4.364288	十二大	-99
-3.938319	十二日	-99
-3.827169	十二月	-99
-4.277138	十二点钟	-99
-3.856133	十五	-99
-4.114411	十五号	-99
-3.705747	十五岁	-99
-4.277138	十人	-99
-4.114411	十八	-99
-4.142439	十八岁	-99
-4.204587	十八日	-99
-3.533201	十几	-99
-3.727466	十分	-99
-3.887167	十四	-99
-4.172403	十四日	-99
-4.172403	十天	-99
-3.762228	十年	-99
-4.239349	十年后	-99
-4.277138	十度	-99
-4.114411	十日	-99
-4.239349	十月	-99
-4.239349	十月革命	-99
-4.239349	十点	-99
-4.204587	千	-99
-4.172403	千万富翁	-99
-4.204587	千古	-99
-4.114411	千真万确	-99
-3.727466	千米	-99
-4.172403	千里	-99
-3.665318	升	-99
-4.239349	升到	-99
-4.277138	升官	-99
-4.114411	升降	-99
-3.856133	午	-99
-4.172403	午后	-99
-3.976108	午夜	-99
-4.142439	午餐肉	-99
-4.142439	午饭	-99
-3.841409	半个	-99
-4.142439	半夜	-99
-4.204587	半小时	-99
-3.871373	半年	-99
-4.063258	半截	-99
-4.142439	半点	-99
-4.142439	华	-99
-4.114411	华严	-99
-4.277138	华北	-99
-4.277138	华工	-99
-4.142439	华星	-99
-4.172403	华里	-99
-4.318531	华隆	-99
-4.277138	协作	-99
-4.114411	协助	-99
-4.277138	协约国	-99
-3.920591	协议	-99
-3.871373	协调	-99
-4.239349	卑鄙无耻	-99
-4.142439	卓	-99
-4.142439	卓越	-99
-4.277138	单	-99
-4.364288	单井	-99
-3.415441	单位	-99
-4.239349	单独	-99
-3.856133	卖	-99
-4.239349	卖淫嫖娼	-99
-4.277138	卖给	-99
-4.277138	卖菜	-99
-3.920591	南	-99
-3.813381	南下	-99
-4.172403	南京	-99
-4.114411	南京军区	-99
-4.277138	南北	-99
-4.142439	南宁	-99
-4.239349	南屏	-99
-3.920591	南方	-99
-4.172403	南沙	-99
-4.114411	南河	-99
-4.318531	南澳	-99
-4.142439	博	-99
-4.172403	博览会	-99
-4.114411	卜	-99
-3.827169	占	-99
-4.239349	占领	-99
-4.088082	卡	-99
-4.114411	卡住	-99
-4.277138	卡拉	-99
-4.318531	卡洛	-99
-4.204587	卡特	-99
-4.277138	卡米	-99
-4.239349	卡连	-99
-4.172403	卢	-99
-4.114411	卢森堡	-99
-4.204587	卧床	-99
-3.787052	卫冕	-99
-3.705747	卫生	-99
-4.172403	卫生员	-99
-3.602527	印	-99
-4.239349	印刷	-99
-4.204587	印尼	-99
-3.655773	印度	-99
-4.142439	印度洋	-99
-3.813381	印有	-99
-3.705747	印染厂	-99
-4.142439	印第安	-99
-4.142439	印花	-99
-4.204587	危	-99
-3.610961	即	-99
-4.277138	即使	-99
-4.204587	即可	-99
-4.114411	即然	-99
-2.834231	却	-99
-3.871373	却是	-99
-3.903558	卷	-99
-4.142439	卷二	-99
-4.172403	卷曲	-99
-3.976108	卷烟厂	-99
-3.157163	厂	-99
-4.142439	厂子	-99
-4.142439	厂家	-99
-4.172403	厂房	-99
-4.063258	厂里	-99
-3.586137	厂长	-99
-3.903558	厄瓜多尔	-99
-4.017501	厅	-99
-4.088082	厅堂	-99
-4.318531	历代	-99
-4.142439	历任	-99
-4.172403	历程	-99
-4.017501	压	-99
-4.204587	压力	-99
-4.277138	压实	-99
-4.318531	压岁钱	-99
-4.277138	压抑	-99
-4.239349	压死	-99
-3.813381	压裂	-99
-4.142439	压轴	-99
-3.716471	厌恶	-99
-3.920591	厕所	-99
-3.384032	原	-99
-4.277138	原为	-99
-4.277138	原产	-99
-3.903558	原先	-99
-3.827169	原则	-99
-4.142439	原则上	-99
-3.685062	原因	-99
-3.841409	原始	-99
-3.420904	原子	-99
-4.172403	原定	-99
-3.610961	原料	-99
-4.172403	原是	-99
-3.841409	原油	-99
-4.277138	原著	-99
-4.114411	厨	-99
-4.172403	厨子	-99
-2.879198	去	-99
-3.322896	去年	-99
-3.887167	去年十月	-99
-4.318531	去年秋天	-99
-4.142439	去找	-99
-3.314209	县	-99
-4.239349	县医院	-99
-4.277138	县市	-99
-4.114411	县政协	-99
-4.142439	县级	-99
-3.920591	参	-99
-3.871373	参与	-99
-4.204587	参事	-99
-3.269313	参加	-99
-4.142439	参议院	-99
-2.444049	又	-99
-4.114411	又是	-99
-3.827169	又要	-99
-3.976108	叉	-99
-3.404717	及	-99
-4.142439	及时	-99
-4.172403	友	-99
-4.415441	友好	-99
-3.903558	友谊	-99
-3.473433	双	-99
-4.114411	双安	-99
-4.239349	双手	-99
-4.172403	双打	-99
-4.114411	双拥	-99
-3.526139	双方	-99
-4.114411	双耳	-99
-4.142439	双臂	-99
-3.675078	反	-99
-4.239349	反动派	-99
-3.856133	反对	-99
-4.114411	反应	-99
-4.114411	反思	-99
-4.172403	反映	-99
-3.920591	反正	-99
-4.318531	反而	-99
-3.887167	发	-99
-4.364288	发下	-99
-4.204587	发令枪	-99
-4.277138	发作	-99
-4.277138	发出	-99
-4.364288	发动	-99
-4.277138	发动机	-99
-3.856133	发售	-99
-3.14244	发展	-99
-4.318531	发布	-99
-4.318531	发烟	-99
-3.976108	发烧	-99
-3.305694	发现	-99
-3.420904	发生	-99
-4.172403	发生意外	-99
-4.277138	发病	-99
-4.204587	发芽	-99
-3.762228	发表	-99
-4.172403	发言人	-99
-4.172403	发财	-99
-4.415441	发音	-99
-4.142439	取代	-99
-4.277138	取决于	-99
-3.996311	取得	-99
-3.841409	受	-99
-4.142439	受伤	-99
-3.841409	受到	-99
-4.114411	受奖	-99
-4.204587	受孕	-99
-4.277138	受宠	-99
-4.142439	受欢迎	-99
-4.114411	受贿	-99
-4.172403	受贿罪	-99
-4.142439	受阻	-99
-4.204587	变	-99
-4.114411	变化	-99
-3.956803	变得	-99
-4.142439	变成	-99
-4.142439	变相	-99
-4.172403	变质	-99
-4.172403	叛乱	-99
-3.827169	叠	-99
-4.204587	叠嶂	-99
-3.077981	口	-99
-3.602527	口岸	-99
-4.277138	口气	-99
-4.172403	口镇	-99
-3.619561	古	-99
-3.920591	古代	-99
-4.239349	古希腊	-99
-4.277138	古建筑	-99
-4.318531	古朴	-99
-4.277138	古籍	-99
-4.239349	古罗马	-99
-4.204587	古雅	-99
-3.856133	句	-99
-4.114411	另	-99
-3.956803	另一种	-99
-3.384032	另外	-99
-4.114411	另有	-99
-3.265452	只	-99
-4.415441	只好	-99
-3.562656	只有	-99
-4.172403	只用	-99
-4.204587	只缘	-99
-3.63729	只能	-99
-4.172403	只要	-99
-4.142439	只见	-99
-3.242984	叫	-99
-4.114411	叫卖	-99
-4.204587	召	-99
-4.172403	叮咛	-99
-4.172403	叮当	-99
-2.850183	可	-99
-4.114411	可为	-99
-3.172403	可以	-99
-4.277138	可可	-99
-3.269313	可是	-99
-4.172403	可爱的	-99
-3.695282	可能	-99
-3.887167	可能性	-99
-4.204587	可见	-99
-4.277138	可谓	-99
-3.665318	台	-99
-4.114411	台上	-99
-3.938319	台湾	-99
-3.570343	史	-99
-3.610961	右	-99
-4.142439	右侧	-99
-3.903558	右手	-99
-4.239349	右臂	-99
-3.774463	叶	-99
-4.088082	叶利钦	-99
-4.277138	叶某	-99
-3.887167	号	-99
-4.017501	司	-99
-4.114411	司令员	-99
-3.976108	司令部	-99
-3.938319	司机	-99
-4.277138	叹息	-99
-2.968283	吃	-99
-4.172403	吃不下	-99
-4.204587	吃喝	-99
-4.142439	吃掉	-99
-4.239349	吃紧	-99
-4.172403	吃苦	-99
-4.172403	吃药	-99
-4.172403	吃饭	-99
-3.619561	各	-99
-4.142439	各人	-99
-3.903558	各区	-99
-4.239349	各地	-99
-4.142439	各式	-99
-4.239349	各界	-99
-3.695282	各种	-99
-3.856133	各类	-99
-3.856133	各级	-99
-4.063258	各自	-99
-4.142439	合	-99
-4.318531	合一	-99
-4.204587	合作	-99
-4.239349	合力	-99
-3.956803	合同	-99
-4.088082	合家欢	-99
-4.239349	合并	-99
-4.239349	合影	-99
-3.813381	合理	-99
-4.415441	合编	-99
-4.239349	合肥	-99
-4.172403	合龙	-99
-4.114411	吉	-99
-4.364288	吉林	-99
-4.204587	吊	-99
-3.194679	同	-99
-4.142439	同一个	-99
-4.142439	同乡	-99
-3.871373	同事	-99
-4.239349	同住	-99
-4.142439	同学们	-99
-4.172403	同学家	-99
-3.586137	同志	-99
-4.172403	同意	-99
-3.479682	同时	-99
-4.114411	同月	-99
-3.533201	同样	-99
-4.277138	同桌	-99
-4.114411	同级	-99
-3.920591	同胞	-99
-3.379012	名	-99
-4.172403	名为	-99
-4.277138	名列	-99
-3.841409	名叫	-99
-4.142439	名将	-99
-4.239349	名扬	-99
-4.142439	名演员	-99
-4.239349	名誉	-99
-2.720836	后	-99
-4.088082	后人	-99
-3.762228	后代	-99
-4.172403	后勤部	-99
-4.239349	后来	-99
-4.114411	后窗	-99
-4.204587	后腿	-99
-4.239349	后院	-99
-4.277138	后面	-99
-4.172403	吐	-99
-3.172403	向	-99
-4.142439	向往	-99
-3.44347	吕	-99
-4.114411	吗	-99
-4.142439	君子	-99
-3.871373	吞	-99
-4.114411	吞吞吐吐	-99
-4.114411	吞没	-99
-4.142439	吟	-99
-3.827169	否决	-99
-3.727466	否则	-99
-4.318531	否定	-99
-3.273208	吨	-99
-4.063258	吩咐	-99
-3.461198	含	-99
-4.172403	含有	-99
-4.318531	含蓄	-99
-3.871373	听	-99
-4.172403	听不到	-99
-3.887167	听到	-99
-4.318531	听力	-99
-4.239349	听来	-99
-4.114411	听者	-99
-3.956803	听见	-99
-3.716471	听说	-99
-3.738747	启	-99
-3.705747	吴	-99
-4.318531	吴孟超	-99
-4.172403	吵	-99
-4.088082	吸引	-99
-4.239349	吸食	-99
-3.665318	吹	-99
-4.277138	吹吹	-99
-4.063258	吹散	-99
-4.142439	吹牛	-99
-4.172403	呀	-99
-3.871373	呆	-99
-4.318531	呆呆	-99
-3.578168	呈	-99
-4.114411	告	-99
-4.172403	告知	-99
-4.172403	告诉	-99
-4.277138	呜呜	-99
-3.570343	呢	-99
-3.976108	周	-99
-3.437717	周围	-99
-4.172403	周旋	-99
-4.364288	周末	-99
-4.364288	周正	-99
-4.142439	周维	-99
-3.920591	味	-99
-3.871373	味儿	-99
-4.142439	呼吁	-99
-4.088082	呼吸困难	-99
-4.277138	命	-99
-3.685062	命令	-99
-4.204587	命运	-99
-2.309931	和	-99
-4.142439	和平区	-99
-4.142439	和成	-99
-4.142439	咔嚓	-99
-4.277138	咕噜	-99
-4.172403	咖啡	-99
-4.415441	咧	-99
-4.239349	咨询业	-99
-4.172403	咬	-99
-3.887167	咬牙	-99
-4.172403	咱	-99
-4.239349	咸菜	-99
-3.813381	咸阳	-99
-3.813381	咸阳市	-99
-4.172403	咽	-99
-4.172403	哀	-99
-3.570343	品	-99
-3.841409	品位	-99
-4.142439	品尝	-99
-4.318531	品种	-99
-4.114411	哄抢	-99
-4.114411	哇	-99
-3.364288	哈	-99
-4.277138	哈利	-99
-4.204587	哈格	-99
-4.239349	哈梅	-99
-3.619561	响	-99
-3.827169	哑	-99
-4.239349	哥	-99
-4.239349	哥伦比亚	-99
-4.277138	哨位	-99
-4.114411	哨所	-99
-4.318531	哪	-99
-3.841409	哪儿	-99
-3.505617	哭	-99
-3.871373	哭声	-99
-4.239349	哭泣	-99
-4.204587	哲	-99
-4.142439	哲学家	-99
-4.364288	哼哼唧唧	-99
-4.318531	哽咽	-99
-4.239349	唇	-99
-4.114411	唉	-99
-3.437717	唐	-99
-4.114411	唐三彩	-99
-4.239349	唐代	-99
-3.841409	唐明	-99
-4.142439	唐朝	-99
-4.277138	唐玄宗	-99
-4.204587	唠嗑	-99
-4.114411	售货员	-99
-4.318531	唯有	-99
-3.841409	唱片	-99
-4.172403	唾沫	-99
-4.114411	啃	-99
-3.695282	商	-99
-3.594255	商业	-99
-3.813381	商场	-99
-4.277138	商店	-99
-4.204587	商贩	-99
-4.204587	商贸	-99
-3.246649	啊	-99
-4.114411	啊啊啊	-99
-4.172403	啡	-99
-3.547679	啥	-99
-3.856133	啦	-99
-4.142439	喂	-99
-4.239349	喂养	-99
-4.142439	喂药	-99
-3.827169	喂食	-99
-4.114411	喉咙	-99
-4.114411	喉管	-99
-4.114411	喊声	-99
-3.685062	喜	-99
-4.142439	喜悦	-99
-4.318531	喜爱	-99
-4.172403	喜讯	-99
-3.887167	喝	-99
-4.277138	喝完	-99
-4.114411	喷	-99
-4.239349	喷涂	-99
-4.172403	喷血	-99
-3.871373	嗅	-99
-4.114411	嗓子	-99
-4.142439	嗓音	-99
-4.239349	嗡	-99
-3.956803	嗡嗡	-99
-4.277138	嘈杂	-99
-4.142439	嘉宾	-99
-4.172403	嘉陵江	-99
-4.204587	嘎	-99
-4.277138	嘱	-99
-4.114411	嘲弄	-99
-4.017501	嘴	-99
-4.142439	嘴唇	-99
-4.142439	嘴里	-99
-4.142439	嘶	-99
-4.364288	噌噌噌	-99
-4.239349	噩耗	-99
-4.172403	噪声	-99
-4.142439	嚼	-99
-3.235745	四	-99
-4.277138	四个	-99
-4.239349	四九年	-99
-4.239349	四人帮	-99
-4.088082	四十	-99
-4.277138	四十万	-99
-4.114411	四千	-99
-4.142439	四千五百七十	-99
-4.277138	四周	-99
-4.172403	四季	-99
-4.277138	四家	-99
-4.172403	四川	-99
-4.204587	四平市	-99
-3.956803	四方	-99
-4.114411	四日	-99
-4.239349	四时	-99
-3.602527	四月	-99
-4.239349	四溢	-99
-4.172403	四百二十三	-99
-4.204587	四百多	-99
-4.114411	四面八方	-99
-4.172403	回	-99
-4.114411	回乡	-99
-4.142439	回到家	-99
-4.239349	回到房间	-99
-4.239349	回升	-99
-4.142439	回去	-99
-4.142439	回头	-99
-4.277138	回娘家	-99
-4.277138	回家	-99
-4.114411	回廊	-99
-4.277138	回扣	-99
-4.088082	回收	-99
-4.239349	回旋	-99
-4.142439	回来	-99
-2.898575	因	-99
-3.184992	因为	-99
-3.350048	因此	-99
-4.172403	因素	-99
-4.114411	因而	-99
-3.716471	团	-99
-4.204587	团体赛	-99
-4.204587	团团	-99
-4.204587	团结	-99
-3.871373	团部	-99
-3.841409	团长	-99
-4.142439	囤	-99
-3.655773	园	-99
-4.114411	园艺	-99
-4.172403	园里	-99
-4.172403	困扰	-99
-4.172403	困难	-99
-4.142439	围	-99
-4.204587	围住	-99
-4.204587	围栏	-99
-3.996311	围绕	-99
-4.142439	固定汇率	-99
-4.114411	固镇	-99
-3.594255	国	-99
-4.239349	国会	-99
-3.547679	国内	-99
-4.318531	国务委员	-99
-3.871373	国务院	-99
-4.318531	国和	-99
-3.533201	国外	-99
-4.239349	国奥队	-99
-3.228626	国家	-99
-4.114411	国库	-99
-4.277138	国新	-99
-4.364288	国有企业	-99
-4.142439	国林	-99
-4.277138	国民党	-99
-3.695282	国王	-99
-3.938319	国籍	-99
-4.364288	国臣	-99
-4.172403	国防大学	-99
-4.204587	国际	-99
-4.364288	国际市场	-99
-4.172403	国际形势	-99
-4.114411	国难	-99
-3.455208	图	-99
-4.142439	图文并茂	-99
-3.675078	图案	-99
-4.172403	图纸	-99
-4.114411	图谋	-99
-3.841409	圆	-99
-3.695282	圆形	-99
-4.172403	圆柱	-99
-4.239349	圆润	-99
-3.903558	圆满	-99
-4.239349	圆白菜	-99
-3.389112	圈	-99
-4.277138	圈层	-99
-3.555103	土	-99
-4.277138	土层	-99
-4.277138	土窑	-99
-2.12708	在	-99
-3.562656	在于	-99
-4.114411	在此	-99
-3.437717	在这里	-99
-4.204587	在逃犯	-99
-4.172403	圩	-99
-2.721934	地	-99
-3.695282	地上	-99
-4.277138	地下	-99
-3.354743	地区	-99
-4.239349	地名	-99
-4.239349	地域	-99
-3.976108	地壳	-99
-4.277138	地处	-99
-4.114411	地市	-99
-3.920591	地方	-99
-4.277138	地望	-99
-4.114411	地毯	-99
-4.172403	地理位置	-99
-4.142439	地瓜	-99
-3.178652	场	-99
-4.239349	场上	-99
-4.204587	场内	-99
-3.903558	场所	-99
-4.114411	场院	-99
-4.204587	场面	-99
-4.172403	均	-99
-4.114411	均为	-99
-4.114411	均匀	-99
-4.142439	坏	-99
-4.114411	坏人	-99
-4.204587	坏掉	-99
-4.172403	坏毛病	-99
-4.318531	坏脾气	-99
-4.142439	坐	-99
-4.172403	坐上	-99
-4.277138	坐坐	-99
-3.841409	坑	-99
-4.142439	坑害	-99
-3.318531	块	-99
-4.142439	块儿	-99
-4.088082	坚	-99
-4.204587	坚定	-99
-4.277138	坚持	-99
-4.277138	坚硬	-99
-4.277138	坝	-99
-3.800017	坡	-99
-4.277138	坡度	-99
-4.172403	坦	-99
-4.318531	坨	-99
-4.239349	坯	-99
-4.142439	坳	-99
-4.063258	型材	-99
-3.610961	垦	-99
-4.277138	垮	-99
-3.685062	埃	-99
-4.239349	埃斯	-99
-3.976108	埃米尔	-99
-4.114411	埋	-99
-4.277138	埋下	-99
-3.871373	城	-99
-3.887167	城市	-99
-4.142439	城里	-99
-3.920591	培养	-99
-3.841409	培育	-99
-3.774463	培训	-99
-4.172403	基	-99
-3.841409	基地	-99
-3.827169	基层	-99
-4.172403	基本	-99
-4.172403	基督教	-99
-3.774463	基础	-99
-4.239349	基诺族	-99
-4.239349	堀	-99
-4.114411	堂	-99
-4.142439	堂屋	-99
-4.142439	堂皇	-99
-4.204587	堆	-99
-4.142439	堑	-99
-3.602527	堤	-99
-4.114411	堪培拉	-99
-4.114411	堵住	-99
-4.172403	塌	-99
-4.114411	塑料	-99
-4.142439	塑造	-99
-4.239349	塔	-99
-4.172403	塔山	-99
-4.114411	塘沽区	-99
-3.665318	塞	-99
-4.239349	塞尔维亚人	-99
-4.239349	填	-99
-4.318531	境内	-99
-3.903558	境界	-99
-3.655773	墓	-99
-4.318531	墓穴	-99
-3.938319	墙	-99
-4.277138	墙上	-99
-4.277138	墙根	-99
-4.277138	墙脚	-99
-3.856133	增	-99
-4.142439	增值税	-99
-3.871373	增加	-99
-4.172403	增幅	-99
-4.088082	增强	-99
-4.239349	增援	-99
-4.063258	增效	-99
-4.017501	墨	-99
-4.318531	墩	-99
-3.856133	壁	-99
-4.142439	壕	-99
-4.172403	士	-99
-4.172403	士人	-99
-4.172403	壮	-99
-4.277138	壮烈牺牲	-99
-3.956803	壮观	-99
-3.322896	声	-99
-4.239349	声明	-99
-3.920591	声音	-99
-3.479682	处	-99
-4.142439	处于	-99
-4.277138	备	-99
-4.277138	备战	-99
-4.142439	复赛	-99
-3.887167	夏	-99
-4.114411	夏夜	-99
-2.856133	外	-99
-4.114411	外乡人	-99
-4.114411	外交	-99
-4.142439	外交人员	-99
-4.172403	外出	-99
-4.114411	外务	-99
-4.318531	外向	-99
-4.172403	外商	-99
-4.114411	外围	-99
-4.172403	外国	-99
-3.813381	外国人	-99
-4.239349	外圈	-99
-4.239349	外地	-99
-4.239349	外头	-99
-3.827169	外婆	-99
-4.277138	外层	-99
-3.841409	外币	-99
-4.142439	外延	-99
-4.277138	外形	-99
-4.239349	外敷	-99
-4.277138	外文	-99
-4.063258	外水	-99
-4.204587	外用	-99
-4.204587	外省	-99
-4.318531	外科	-99
-3.938319	外表	-99
-4.204587	外观	-99
-3.762228	外语	-99
-3.665318	外贸	-99
-3.404717	外资	-99
-3.716471	外部	-99
-4.142439	外销	-99
-3.762228	外长	-99
-4.172403	外面	-99
-3.088082	多	-99
-4.088082	多个	-99
-4.318531	多久	-99
-4.277138	多半	-99
-4.277138	多名	-99
-4.415441	多头	-99
-4.114411	多媒体	-99
-3.586137	多少	-99
-4.277138	多怪	-99
-4.172403	多斯桑托斯	-99
-4.239349	多方	-99
-3.938319	多来	-99
-4.172403	多样	-99
-4.318531	多次	-99
-4.239349	多种	-99
-3.610961	夜	-99
-4.114411	夜一	-99
-3.594255	夜晚	-99
-4.239349	夜空	-99
-4.277138	夜里	-99
-4.172403	夜间	-99
-4.114411	够	-99
-2.972178	大	-99
-4.088082	大众	-99
-4.277138	大会	-99
-3.841409	大使	-99
-4.114411	大别山	-99
-4.204587	大厅	-99
-3.938319	大同	-99
-4.088082	大块	-99
-4.142439	大型	-99
-4.142439	大多	-99
-4.172403	大多数	-99
-4.277138	大大	-99
-4.277138	大夫	-99
-4.204587	大嫂	-99
-3.665318	大家	-99
-4.277138	大寨	-99
-3.871373	大小	-99
-4.239349	大幅度	-99
-4.204587	大平	-99
-4.172403	大弯	-99
-4.063258	大忙人	-99
-4.142439	大惊失色	-99
-4.172403	大户	-99
-4.114411	大提琴	-99
-4.239349	大搞	-99
-4.142439	大棚	-99
-4.277138	大海	-99
-4.172403	大涨	-99
-4.239349	大田	-99
-4.415441	大眼睛	-99
-4.142439	大篷车	-99
-4.277138	大约	-99
-4.114411	大群	-99
-4.114411	大胆	-99
-4.172403	大臣	-99
-3.903558	大蒜	-99
-4.114411	大道	-99
-3.976108	大部分	-99
-4.088082	大都	-99
-3.655773	大量	-99
-4.142439	大陆	-99
-4.277138	大马哈鱼	-99
-3.727466	天	-99
-4.114411	天仙	-99
-4.239349	天公	-99
-4.114411	天内	-99
-4.142439	天地	-99
-4.114411	天天说	-99
-4.239349	天心	-99
-4.114411	天河	-99
-3.675078	天津	-99
-4.318531	天然	-99
-4.277138	天祥	-99
-4.239349	天雨	-99
-4.142439	天霞	-99
-4.142439	天高	-99
-3.956803	太	-99
-4.114411	太原	-99
-4.318531	太原市	-99
-4.142439	太多	-99
-3.695282	太太	-99
-4.088082	太平	-99
-4.239349	太湖	-99
-4.277138	太空船	-99
-3.665318	太行	-99
-3.887167	太阳	-99
-4.277138	太阳伞	-99
-3.762228	夫	-99
-4.017501	夫人	-99
-3.738747	夫妇	-99
-4.318531	失火	-99
-3.467273	头	-99
-3.871373	头发	-99
-4.204587	头昏	-99
-4.204587	头晕	-99
-4.239349	头盔	-99
-4.114411	头羊	-99
-4.142439	头顶	-99
-3.675078	夹	-99
-4.172403	夹杂	-99
-3.841409	夺	-99
-4.204587	夺得	-99
-4.239349	夺走	-99
-3.655773	奇	-99
-4.204587	奇怪	-99
-4.239349	奇缺	-99
-4.415441	奈	-99
-4.277138	奈尔	-99
-4.142439	奋勇	-99
-4.142439	奋战	-99
-4.277138	奎尔	-99
-3.871373	契	-99
-4.172403	奔去	-99
-4.239349	奔向	-99
-4.277138	奔波	-99
-3.996311	奔走	-99
-4.239349	奔跑	-99
-4.172403	奖品	-99
-3.813381	套	-99
-4.142439	套件	-99
-3.738747	奥	-99
-4.277138	奥尼尔	-99
-4.277138	奥斯卡	-99
-4.088082	奥斯维辛	-99
-3.762228	奥运	-99
-3.956803	奥运会	-99
-3.533201	女	-99
-3.787052	女儿	-99
-4.204587	女单	-99
-4.142439	女友	-99
-4.277138	女子	-99
-4.114411	女宾	-99
-4.277138	女性	-99
-3.841409	女装	-99
-4.239349	女队	-99
-4.172403	女鞋	-99
-3.410046	奶	-99
-4.239349	奶味	-99
-3.827169	奶奶	-99
-4.239349	奶牛	-99
-4.277138	奶粉	-99
-2.575806	她	-99
-4.142439	她们	-99
-4.142439	她说	-99
-3.354743	好	-99
-4.239349	好习惯	-99
-4.277138	好事	-99
-4.114411	好人	-99
-3.920591	好像	-99
-4.239349	好玩	-99
-4.172403	好生	-99
-4.114411	好看	-99
-4.142439	好评	-99
-3.030729	如	-99
-3.938319	如今	-99
-4.142439	如何	-99
-4.088082	如同	-99
-4.142439	如数	-99
-3.610961	如果	-99
-3.578168	如此	-99
-4.204587	如玉	-99
-4.142439	妄	-99
-4.239349	妇产科	-99
-4.114411	妇人	-99
-4.239349	妇女儿童	-99
-3.938319	妈	-99
-4.318531	妈的	-99
-4.172403	妊娠	-99
-4.172403	妓女	-99
-4.142439	妖孽	-99
-4.318531	妙	-99
-4.172403	妙语	-99
-4.204587	妙趣横生	-99
-4.114411	妩媚	-99
-4.239349	妹夫	-99
-3.938319	妹妹	-99
-4.172403	妻女	-99
-3.562656	妻子	-99
-4.277138	妾	-99
-4.277138	姆	-99
-3.903558	姊妹	-99
-4.172403	始终	-99
-4.142439	姐们儿	-99
-4.172403	姐妹	-99
-4.239349	姐妹们	-99
-3.996311	姐妹俩	-99
-4.318531	姐姐	-99
-3.956803	姑娘	-99
-4.277138	姑爷	-99
-4.204587	委	-99
-4.239349	委内瑞拉	-99
-3.920591	委员	-99
-4.318531	委员会	-99
-3.887167	委托	-99
-4.172403	姚	-99
-4.172403	姨	-99
-4.142439	姻缘	-99
-3.903558	威胁	-99
-3.602527	娃	-99
-3.841409	娃儿	-99
-4.142439	娃哈哈	-99
-4.239349	娃娃脸	-99
-4.239349	娃娃鱼	-99
-4.318531	娃子	-99
-4.318531	娇妻	-99
-3.738747	娘	-99
-4.142439	娘娘	-99
-4.239349	娘子	-99
-4.172403	娘家	-99
-3.996311	娜	-99
-4.277138	娱乐业	-99
-4.277138	娱乐城	-99
-4.204587	娱乐片	-99
-4.239349	娶	-99
-4.114411	婆娑	-99
-4.318531	婆婆	-99
-4.114411	婉言谢绝	-99
-4.172403	婚姻	-99
-4.239349	婚期	-99
-4.088082	婚礼	-99
-3.750329	婴儿	-99
-4.172403	嫂	-99
-4.204587	嫌疑犯	-99
-4.172403	嫡亲	-99
-4.277138	嫣	-99
-3.738747	嫩	-99
-4.142439	嫩嫩	-99
-4.114411	嬉	-99
-3.619561	子	-99
-4.114411	子弟兵	-99
-3.813381	孔	-99
-4.277138	孔子	-99
-4.415441	孔雀	-99
-3.619561	字	-99
-4.172403	存	-99
-3.938319	存在	-99
-4.239349	存活	-99
-3.228626	孙	-99
-4.318531	孙儿	-99
-4.318531	孙女	-99
-3.996311	孙子	-99
-4.172403	孟	-99
-4.277138	季	-99
-4.172403	季军	-99
-4.088082	季节	-99
-4.114411	孤单	-99
-4.017501	孥	-99
-4.277138	学	-99
-3.309931	学习	-99
-4.172403	学会	-99
-4.114411	学养	-99
-3.887167	学员	-99
-4.172403	学家	-99
-4.114411	学年	-99
-4.172403	学文	-99
-4.114411	学校	-99
-4.172403	学派	-99
-4.114411	学生	-99
-3.738747	学者	-99
-4.204587	学语文	-99
-3.716471	学院	-99
-4.364288	孩子	-99
-3.976108	孩子们	-99
-4.239349	孵卵	-99
-4.172403	宁儿	-99
-4.172403	宁愿	-99
-3.774463	宁波	-99
-4.277138	宁肯	-99
-3.18181	它	-99
-4.277138	宇	-99
-3.841409	安	-99
-4.172403	安东	-99
-4.114411	安保	-99
-3.738747	安全	-99
-4.318531	安全模式	-99
-4.277138	安好	-99
-3.871373	安宁	-99
-4.063258	安息	-99
-3.646433	安排	-99
-4.142439	安民	-99
-4.204587	安然	-99
-4.239349	安第斯	-99
-4.142439	安葬	-99
-4.239349	安详	-99
-4.204587	安达市	-99
-4.142439	安静	-99
-4.318531	宋	-99
-4.142439	宋庆龄	-99
-4.277138	宋真宗	-99
-4.114411	宋祖英	-99
-3.498987	完	-99
-3.903558	完了	-99
-3.996311	完全	-99
-4.204587	完善	-99
-3.887167	完成	-99
-4.277138	完成任务	-99
-4.063258	完整	-99
-4.114411	完毕	-99
-3.956803	完美	-99
-4.172403	完美结合	-99
-3.602527	宗	-99
-4.142439	宗庆后	-99
-4.142439	宗教	-99
-4.277138	官	-99
-3.841409	官兵	-99
-4.142439	官军	-99
-4.239349	官员	-99
-4.277138	官方	-99
-4.142439	官邸	-99
-3.920591	定	-99
-4.204587	定出	-99
-4.239349	定力	-99
-4.318531	定慧	-99
-4.277138	定时炸弹	-99
-4.114411	宛若	-99
-4.239349	宝	-99
-4.277138	宝贝	-99
-4.318531	实业	-99
-3.705747	实现	-99
-4.172403	实用性	-99
-3.695282	实行	-99
-4.114411	实诚	-99
-4.142439	实际	-99
-3.903558	实际上	-99
-4.204587	实验	-99
-4.142439	宠儿	-99
-3.856133	审批	-99
-4.114411	客	-99
-3.800017	客人	-99
-4.277138	客厅	-99
-4.142439	客源	-99
-4.142439	客轮	-99
-4.318531	宣传	-99
-4.172403	宣传牌	-99
-4.172403	宣告	-99
-3.54038	宣布	-99
-4.172403	室外	-99
-3.841409	宪	-99
-3.486022	宪法	-99
-4.277138	宫	-99
-3.871373	害	-99
-4.277138	害怕	-99
-4.142439	害虫	-99
-3.254073	家	-99
-4.277138	家园	-99
-3.665318	家庭	-99
-4.114411	家徒四壁	-99
-4.277138	家珍	-99
-4.114411	家用	-99
-4.204587	家电维修	-99
-4.364288	家里	-99
-4.364288	家长们	-99
-4.204587	宸	-99
-3.956803	容易	-99
-3.646433	宽	-99
-4.142439	宽厚	-99
-4.318531	宽阔	-99
-4.277138	宾	-99
-4.114411	宿	-99
-4.114411	密	-99
-4.114411	密封圈	-99
-4.239349	密布	-99
-4.142439	密度	-99
-4.172403	密谋	-99
-4.172403	富	-99
-4.239349	富裕	-99
-4.142439	富贵	-99
-3.871373	寒	-99
-4.172403	寒冷	-99
-4.318531	寒山寺	-99
-4.114411	寒气	-99
-4.142439	寓意	-99
-4.277138	察看	-99
-4.114411	察觉	-99
-4.277138	寡不敌众	-99
-4.277138	寨	-99
-2.73082	对	-99
-3.675078	对于	-99
-4.277138	对口	-99
-4.204587	对手	-99
-4.277138	对接	-99
-4.239349	对方	-99
-4.172403	对於	-99
-3.903558	对此	-99
-4.172403	对马	-99
-4.318531	寺	-99
-4.204587	寺庙	-99
-3.871373	寻呼	-99
-4.172403	寻呼台	-99
-3.762228	寻找	-99
-3.685062	导	-99
-4.277138	导演	-99
-3.871373	导致	-99
-4.277138	寿	-99
-4.239349	寿春	-99
-3.437717	封	-99
-4.318531	射击	-99
-4.172403	射箭	-99
-2.716471	将	-99
-3.800017	将军	-99
-4.172403	将要	-99
-3.024065	小	-99
-4.142439	小人	-99
-4.088082	小仲	-99
-4.114411	小伍	-99
-4.204587	小军	-99
-4.277138	小孩子	-99
-4.142439	小山	-99
-4.142439	小巧玲珑	-99
-4.277138	小康村	-99
-4.142439	小杯	-99
-3.903558	小湖	-99
-4.204587	小组	-99
-4.114411	小胖子	-99
-4.142439	小船	-99
-4.172403	小艾	-99
-4.239349	小苗	-99
-4.318531	小费	-99
-4.318531	小路	-99
-3.695282	小院	-99
-3.562656	少	-99
-4.142439	少儿	-99
-4.172403	少吃	-99
-4.142439	少平	-99
-4.277138	少校	-99
-4.415441	少部分	-99
-3.956803	尔	-99
-3.903558	尖	-99
-4.318531	尚无	-99
-3.856133	尚未	-99
-4.172403	尤为	-99
-3.938319	尤其	-99
-3.887167	尧	-99
-2.650145	就	-99
-3.750329	就会	-99
-4.142439	就好	-99
-3.467273	就是	-99
-4.318531	就此	-99
-3.976108	就算	-99
-4.277138	就职	-99
-4.277138	尸骨	-99
-4.172403	尺子	-99
-3.586137	尼	-99
-4.142439	尼加拉瓜	-99
-4.364288	尼恩	-99
-3.570343	尽	-99
-3.938319	尽快	-99
-3.938319	尾	-99
-4.172403	尾巴	-99
-3.856133	局	-99
-4.142439	局促	-99
-4.239349	局势	-99
-4.239349	局外人	-99
-4.364288	局长	-99
-4.239349	局面	-99
-3.415441	层	-99
-4.277138	层层	-99
-3.871373	居	-99
-4.172403	居住	-99
-3.956803	居民	-99
-4.277138	屈	-99
-4.172403	屈尊	-99
-4.239349	届	-99
-4.277138	屋	-99
-4.277138	屋内	-99
-3.903558	屋子	-99
-3.750329	屋顶	-99
-4.142439	屏幕	-99
-3.841409	属	-99
-4.114411	属于	-99
-4.239349	屠	-99
-4.239349	屡	-99
-3.090644	山	-99
-3.716471	山下	-99
-4.277138	山东	-99
-4.277138	山东省	-99
-3.578168	山区	-99
-4.277138	山峦	-99
-4.172403	山崖	-99
-4.088082	山川	-99
-4.172403	山沟	-99
-4.277138	山泉	-99
-4.114411	山脉	-99
-4.277138	山路	-99
-3.813381	山野	-99
-4.318531	屿	-99
-3.420904	岁	-99
-4.172403	岁月	-99
-3.813381	岗位	-99
-4.088082	岛	-99
-4.318531	岛上	-99
-3.705747	岩	-99
-3.976108	岩石	-99
-3.675078	岳	-99
-4.277138	岸	-99
-3.774463	岸边	-99
-4.318531	峡	-99
-3.705747	峦	-99
-4.172403	崇武	-99
-4.142439	崇祯	-99
-4.277138	崔	-99
-3.586137	崖	-99
-4.239349	崛	-99
-4.277138	崩	-99
-4.114411	崭	-99
-4.318531	嶙峋	-99
-4.114411	巍峨	-99
-4.172403	巍巍	-99
-4.088082	川岛芳子	-99
-3.827169	州	-99
-4.142439	巡逻艇	-99
-3.655773	工业	-99
-4.204587	工业区	-99
-4.277138	工事	-99
-3.903558	工人	-99
-3.246649	工作	-99
-4.204587	工作面	-99
-3.841409	工厂	-99
-4.239349	工学	-99
-4.239349	工程	-99
-4.239349	工程院	-99
-4.142439	工资	-99
-3.903558	左	-99
-4.142439	左下	-99
-3.526139	左右	-99
-4.172403	左手	-99
-4.204587	左拐	-99
-4.277138	巨大	-99
-4.114411	巨星	-99
-4.277138	巨额	-99
-4.239349	巩	-99
-4.204587	巫婆	-99
-4.142439	巫山	-99
-3.887167	差	-99
-3.813381	差异	-99
-4.063258	己	-99
-2.832809	已	-99
-3.976108	已有	-99
-3.619561	已经	-99
-3.903558	巴	-99
-4.239349	巴中	-99
-4.239349	巴尔	-99
-4.142439	巴拿马	-99
-3.655773	币	-99
-3.399453	市	-99
-4.239349	市区	-99
-3.384032	市场	-99
-4.172403	市场报	-99
-4.277138	市场经济	-99
-4.204587	市委	-99
-4.172403	市政	-99
-4.172403	市长	-99
-3.871373	布	-99
-4.114411	布置	-99
-3.738747	师	-99
-4.239349	师生	-99
-4.204587	希	-99
-4.277138	希君	-99
-3.903558	希望	-99
-4.114411	希望小学	-99
-3.976108	帐篷	-99
-4.277138	帕子	-99
-4.172403	帕帕	-99
-3.827169	帘	-99
-4.318531	帙	-99
-3.695282	帝	-99
-3.359489	带	-99
-4.239349	带动	-99
-4.318531	带回	-99
-4.318531	带头	-99
-3.665318	带来	-99
-4.142439	席	-99
-3.665318	帮	-99
-3.628335	帮助	-99
-4.142439	帷幕	-99
-3.578168	常	-99
-3.54038	常常	-99
-4.277138	常温	-99
-3.956803	常规	-99
-4.142439	幅员	-99
-4.142439	幔	-99
-3.562656	干	-99
-4.142439	干活	-99
-4.277138	干粮	-99
-4.142439	干线	-99
-4.277138	干脆	-99
-3.871373	干部	-99
-4.088082	干预	-99
-3.665318	平	-99
-3.750329	平均	-99
-4.277138	平均年龄	-99
-3.871373	平壤	-99
-4.239349	平定	-99
-4.172403	平时	-99
-4.239349	平衡	-99
-3.277138	年	-99
-3.705747	年代	-99
-4.088082	年卡	-99
-4.172403	年底	-99
-4.277138	年画	-99
-3.956803	年轻	-99
-4.142439	年迈	-99
-4.277138	年长者	-99
-3.887167	年间	-99
-3.053713	并	-99
-3.665318	并不	-99
-4.172403	并未	-99
-3.750329	并没有	-99
-3.841409	并非	-99
-4.142439	幸	-99
-4.239349	幸福	-99
-4.142439	幸运	-99
-4.142439	幼	-99
-3.996311	幼儿园	-99
-4.114411	幼年	-99
-4.318531	幽	-99
-4.142439	幽幽	-99
-4.204587	幽默	-99
-3.800017	广	-99
-4.142439	广东人	-99
-3.257833	广告	-99
-4.239349	广告业	-99
-4.204587	广告公司	-99
-4.318531	广场	-99
-4.239349	广大	-99
-4.088082	广岛	-99
-3.364288	广州	-99
-4.239349	广州队	-99
-4.142439	广播	-99
-3.996311	广泛	-99
-3.871373	广西	-99
-4.318531	庄严	-99
-4.142439	庄村	-99
-3.695282	庆	-99
-4.114411	庆贺	-99
-3.903558	床	-99
-4.277138	床上	-99
-4.277138	床单	-99
-4.142439	床罩	-99
-4.239349	床铺	-99
-3.716471	库	-99
-4.114411	库区	-99
-4.172403	库存	-99
-2.794784	应	-99
-4.364288	应予	-99
-4.277138	应允	-99
-3.685062	应当	-99
-4.114411	应是	-99
-3.705747	应用	-99
-4.364288	应用题	-99
-3.762228	应该	-99
-4.172403	应运而生	-99
-3.727466	应邀	-99
-3.562656	底	-99
-4.172403	底儿	-99
-4.204587	底片	-99
-4.088082	底色	-99
-4.114411	庖	-99
-4.318531	庙	-99
-4.318531	庙前	-99
-4.142439	府	-99
-3.841409	庞	-99
-4.318531	庞大	-99
-3.827169	废	-99
-4.239349	废旧	-99
-4.114411	废水	-99
-4.318531	度过难关	-99
-3.938319	座	-99
-4.114411	庭	-99
-4.277138	庵	-99
-3.871373	康	-99
-4.114411	康县	-99
-4.239349	康夫	-99
-4.172403	康熙	-99
-3.903558	廖	-99
-3.856133	延伸	-99
-4.172403	延安	-99
-4.364288	延寿	-99
-4.277138	延缓	-99
-4.172403	延至	-99
-3.379012	建	-99
-4.114411	建立	-99
-4.204587	建筑	-99
-3.716471	建设	-99
-3.201259	开	-99
-4.239349	开业	-99
-4.172403	开会	-99
-4.239349	开关	-99
-4.277138	开发	-99
-3.856133	开发区	-99
-3.293225	开始	-99
-3.512351	开展	-99
-4.204587	开幕	-99
-4.172403	开户银行	-99
-3.856133	开放	-99
-4.142439	开水	-99
-4.318531	开滦	-99
-4.172403	开窗	-99
-4.142439	开车	-99
-4.172403	开辟	-99
-4.277138	开远	-99
-4.318531	开通	-99
-3.841409	开采	-99
-4.277138	开间	-99
-4.239349	异性	-99
-4.277138	异样	-99
-3.727466	弄	-99
-4.239349	弄清	-99
-4.114411	弄脏	-99
-4.204587	式	-99
-4.142439	弓	-99
-4.142439	弓弩	-99
-3.976108	引	-99
-4.277138	引擎	-99
-4.239349	引诱	-99
-3.750329	引起	-99
-4.277138	引路	-99
-3.498987	引进	-99
-4.277138	弗	-99
-4.172403	弟	-99
-4.172403	弟兄	-99
-3.33626	张	-99
-4.114411	张伯伦	-99
-4.142439	张强	-99
-4.172403	张慧	-99
-4.142439	张望	-99
-4.114411	张牙舞爪	-99
-4.318531	张震	-99
-4.142439	弥散	-99
-3.856133	弯	-99
-3.871373	弯腰	-99
-3.956803	弱	-99
-4.277138	弹性	-99
-4.318531	弹指	-99
-4.277138	弹药	-99
-3.738747	强	-99
-4.142439	强劲	-99
-4.277138	强化	-99
-4.239349	强壮	-99
-4.239349	强调	-99
-4.172403	归	-99
-3.426436	当	-99
-4.318531	当中	-99
-4.142439	当今	-99
-4.172403	当儿	-99
-4.114411	当前	-99
-3.738747	当地	-99
-4.239349	当场	-99
-3.956803	当天	-99
-4.277138	当家	-99
-4.318531	当年	-99
-3.738747	当时	-99
-3.887167	当然	-99
-4.114411	当铺	-99
-4.114411	录像带	-99
-4.142439	录取	-99
-3.976108	录用	-99
-3.976108	形	-99
-4.172403	形似	-99
-4.142439	形势	-99
-3.555103	形式	-99
-3.956803	形状	-99
-4.318531	形象	-99
-4.239349	彩云	-99
-4.239349	彩印厂	-99
-4.088082	彩旗	-99
-4.239349	彩色	-99
-3.813381	彩蝶	-99
-4.172403	彬	-99
-4.277138	彬彬有礼	-99
-3.938319	彭	-99
-4.114411	彭丽媛	-99
-3.555103	影	-99
-4.172403	影业	-99
-3.738747	影响	-99
-4.204587	影响生育	-99
-4.204587	影坛	-99
-4.172403	影片	-99
-4.142439	影视	-99
-4.114411	影视作品	-99
-4.364288	影视片	-99
-4.172403	彻夜未眠	-99
-4.204587	彻底	-99
-4.172403	彼	-99
-2.938319	往	-99
-3.887167	往下	-99
-4.142439	往回	-99
-3.44347	往往	-99
-4.204587	往日	-99
-4.239349	往来	-99
-3.827169	征	-99
-4.142439	征收	-99
-4.172403	径	-99
-3.871373	待	-99
-3.051359	很	-99
-4.318531	很多	-99
-4.172403	很容易	-99
-3.727466	很快	-99
-3.486022	徐	-99
-4.114411	徐州市	-99
-4.142439	徐敏	-99
-2.747988	得	-99
-3.750329	得到	-99
-4.172403	得名	-99
-4.277138	得志	-99
-4.277138	循	-99
-4.204587	循环	-99
-4.204587	循环系统	-99
-4.142439	微妙	-99
-4.364288	微弱	-99
-4.142439	微微	-99
-4.318531	微生物	-99
-3.610961	德	-99
-4.277138	德勤	-99
-3.813381	德育	-99
-3.716471	心	-99
-4.114411	心力	-99
-4.239349	心地	-99
-4.204587	心境	-99
-4.142439	心头	-99
-4.239349	心思	-99
-4.017501	心情	-99
-4.239349	心惊肉跳	-99
-4.172403	心浮	-99
-4.114411	心肌梗塞	-99
-4.172403	心肝	-99
-4.172403	心脏	-99
-3.705747	心里	-99
-4.172403	必	-99
-4.172403	必能	-99
-3.399453	必须	-99
-4.114411	忆苦	-99
-4.142439	忐忑	-99
-4.172403	志气	-99
-4.239349	忘不了	-99
-4.063258	忘了	-99
-4.172403	忘却	-99
-4.172403	忘怀	-99
-4.277138	忘我	-99
-4.172403	忘本	-99
-4.239349	忘记	-99
-3.827169	忙	-99
-4.239349	忙于	-99
-3.827169	忙碌	-99
-4.172403	忧郁	-99
-3.340807	快	-99
-4.114411	快艇	-99
-4.142439	快要	-99
-3.762228	念佛	-99
-4.277138	忻	-99
-4.277138	怀	-99
-4.318531	怀孕	-99
-4.172403	怀抱	-99
-3.695282	怎么	-99
-4.172403	怎奈	-99
-3.841409	怎样	-99
-3.903558	怒	-99
-4.239349	怒斥	-99
-3.827169	怒江	-99
-4.142439	怔	-99
-3.505617	怕	-99
-4.277138	怖	-99
-3.827169	思	-99
-4.142439	思奇	-99
-3.646433	思想	-99
-4.114411	思维	-99
-4.364288	思路	-99
-4.142439	怡人	-99
-4.142439	急	-99
-3.841409	急切	-99
-4.142439	急忙	-99
-4.114411	急性	-99
-4.142439	急需	-99
-3.486022	性	-99
-4.172403	性情	-99
-4.318531	性格	-99
-4.318531	性爱	-99
-4.017501	性腺	-99
-3.841409	性质	-99
-4.172403	怪	-99
-4.318531	怪事	-99
-4.318531	怪物	-99
-4.142439	怪病	-99
-4.204587	怯	-99
-3.705747	总	-99
-4.364288	总体	-99
-4.142439	总公司	-99
-4.142439	总是	-99
-3.920591	总理	-99
-3.774463	总算	-99
-4.142439	总经理	-99
-4.239349	总结会	-99
-3.628335	总统	-99
-4.277138	总能	-99
-4.142439	总额	-99
-3.938319	恋爱	-99
-4.239349	恐怕	-99
-4.277138	恐怖	-99
-4.142439	恐惧	-99
-4.172403	恒通	-99
-4.239349	恢复	-99
-4.172403	恩	-99
-4.142439	恩宠	-99
-3.813381	恩赐	-99
-3.920591	恬静	-99
-4.364288	恰恰相反	-99
-4.239349	恳请	-99
-4.318531	恶	-99
-4.114411	恶劣	-99
-4.142439	恶性循环	-99
-4.239349	恶毒	-99
-4.114411	恶魔	-99
-4.088082	恼怒	-99
-4.318531	悄悄	-99
-4.204587	悟	-99
-4.114411	悟到	-99
-3.562656	患	-99
-4.318531	患儿	-99
-3.856133	患有	-99
-4.204587	患病	-99
-4.318531	患者	-99
-3.420904	您	-99
-4.114411	悬空	-99
-4.172403	悲伤	-99
-4.318531	悲壮	-99
-4.172403	情	-99
-4.088082	情侣卡	-99
-3.467273	情况	-99
-4.114411	情景	-99
-3.903558	惊	-99
-4.114411	惊呆	-99
-4.142439	惊恐万状	-99
-4.277138	惟	-99
-4.172403	惦	-99
-4.277138	惬意	-99
-4.088082	惭愧	-99
-3.467273	想	-99
-4.277138	想出	-99
-4.239349	想笑	-99
-3.887167	想要	-99
-4.142439	想象	-99
-4.142439	想起来	-99
-4.142439	惶惶	-99
-3.63729	愈	-99
-4.114411	愈演愈烈	-99
-4.277138	愉快	-99
-3.903558	意	-99
-3.827169	意义	-99
-4.088082	意味	-99
-4.142439	意味着	-99
-4.172403	意外	-99
-4.204587	意欲	-99
-4.142439	意犹未尽	-99
-4.172403	意识	-99
-4.172403	愚	-99
-3.685062	感	-99
-4.172403	感兴趣	-99
-4.142439	感冒	-99
-3.774463	感到	-99
-4.114411	感受	-99
-4.415441	感叹	-99
-4.172403	感应	-99
-4.142439	感激涕零	-99
-4.277138	感觉	-99
-4.172403	感谢	-99
-4.239349	愤	-99
-4.277138	愤怒	-99
-3.505617	愿	-99
-3.956803	愿意	-99
-3.976108	愿望	-99
-3.903558	慕	-99
-4.142439	慢	-99
-4.204587	慢性	-99
-4.204587	慧娟	-99
-3.695282	慰问	-99
-4.114411	憨憨	-99
-4.142439	懊丧	-99
-4.277138	懒惰	-99
-4.172403	懦弱	-99
-4.204587	戈	-99
-3.685062	戏	-99
-3.404717	成	-99
-4.142439	成一	-99
-4.277138	成不了	-99
-3.570343	成为	-99
-3.273208	成了	-99
-4.172403	成分	-99
-3.570343	成功	-99
-4.364288	成员	-99
-4.415441	成堆	-99
-4.142439	成家	-99
-4.318531	成对	-99
-3.827169	成本	-99
-4.277138	成果	-99
-4.017501	成熟	-99
-3.512351	成绩	-99
-4.114411	成群结队	-99
-4.172403	成都	-99
-4.114411	成长	-99
-2.275955	我	-99
-4.239349	我不会	-99
-4.172403	我以为	-99
-2.964422	我们	-99
-4.114411	我们一家	-99
-3.827169	我县	-99
-4.277138	我喜欢	-99
-3.285107	我国	-99
-4.142439	我妈	-99
-3.841409	我家	-99
-4.277138	我的家	-99
-3.976108	我的手	-99
-4.142439	我的灵魂	-99
-4.142439	我省	-99
-4.142439	我终于	-99
-3.903558	我镇	-99
-4.114411	戒指	-99
-4.142439	戒烟	-99
-3.128199	或	-99
-3.705747	或者	-99
-4.142439	或许	-99
-4.204587	战	-99
-4.277138	战争	-99
-4.277138	战军	-99
-4.277138	战场	-99
-3.705747	战士	-99
-3.903558	战斗	-99
-4.088082	战无不胜	-99
-4.239349	战时	-99
-4.142439	战火	-99
-4.142439	战略	-99
-4.114411	战线	-99
-4.114411	战绩	-99
-4.239349	战胜	-99
-3.813381	截至	-99
-4.142439	戳	-99
-3.665318	戴	-99
-3.426436	户	-99
-4.277138	户外	-99
-4.114411	房间	-99
-3.00256	所	-99
-3.350048	所以	-99
-4.088082	所得	-99
-3.570343	所有	-99
-4.204587	所有者	-99
-4.318531	所说	-99
-4.172403	所谓	-99
-4.114411	所长	-99
-3.938319	所需	-99
-3.492456	手	-99
-4.277138	手指	-99
-4.239349	手捧	-99
-4.318531	手掌	-99
-4.277138	手绢	-99
-4.364288	手表	-99
-4.142439	手里	-99
-3.21816	才	-99
-4.239349	才会	-99
-3.762228	才能	-99
-3.920591	扎	-99
-4.172403	扎伊尔	-99
-4.239349	扎哈	-99
-4.114411	扎基	-99
-3.716471	扑	-99
-4.239349	扑向	-99
-4.277138	扒	-99
-3.467273	打	-99
-4.239349	打击	-99
-4.172403	打好	-99
-4.239349	打工妹	-99
-3.938319	打开	-99
-4.204587	打来	-99
-4.063258	打结	-99
-4.172403	打酱油	-99
-4.142439	扔	-99
-4.088082	扔掉	-99
-3.498987	托	-99
-4.318531	托尔斯泰	-99
-4.114411	扛着	-99
-4.364288	扣	-99
-4.277138	扣押	-99
-4.204587	执行主席	-99
-4.204587	扩印	-99
-4.239349	扩大	-99
-4.172403	扫兴	-99
-4.142439	扫描	-99
-4.277138	扫荡	-99
-4.239349	扫除	-99
-4.142439	扫雷	-99
-3.920591	扬	-99
-4.114411	扬名	-99
-4.114411	扬州	-99
-4.172403	扬扬	-99
-4.239349	扬起	-99
-4.172403	扭亏	-99
-4.172403	扭亏为盈	-99
-4.114411	扭动	-99
-4.277138	扯	-99
-4.114411	扰乱	-99
-4.172403	扶	-99
-4.142439	扶持	-99
-4.114411	扼住	-99
-4.239349	扼制	-99
-3.871373	找	-99
-3.938319	承	-99
-3.695282	承兑	-99
-4.277138	承包	-99
-3.309931	技术	-99
-4.063258	技术培训	-99
-4.142439	技能	-99
-4.277138	技艺	-99
-2.698395	把	-99
-4.088082	把玩	-99
-3.017501	抓	-99
-3.705747	抓住	-99
-4.114411	抓好	-99
-4.204587	抓走	-99
-4.318531	抓重点	-99
-4.239349	投入	-99
-3.856133	投资	-99
-4.318531	抗争	-99
-4.142439	抗日	-99
-4.318531	抗洪	-99
-4.114411	抗美援朝	-99
-4.277138	抗菌素	-99
-4.172403	抛	-99
-3.841409	抛售	-99
-4.239349	抢	-99
-4.142439	抢先	-99
-4.172403	抢运	-99
-4.114411	护	-99
-3.685062	护理	-99
-3.887167	报告	-99
-4.239349	报复	-99
-4.277138	报时	-99
-3.716471	报道	-99
-3.996311	抱	-99
-3.956803	抱住	-99
-3.887167	抱着	-99
-4.114411	抵	-99
-4.277138	抵抗	-99
-4.318531	抵押	-99
-4.142439	抵赖	-99
-4.239349	抵达	-99
-4.172403	抹	-99
-4.114411	押	-99
-4.239349	押运	-99
-4.318531	押韵	-99
-3.938319	抽	-99
-4.277138	抽掉	-99
-3.841409	抽水	-99
-4.142439	担任	-99
-4.204587	拆	-99
-3.420904	拉	-99
-4.277138	拉丝	-99
-4.239349	拉夫	-99
-4.142439	拉开	-99
-4.142439	拉萨	-99
-4.142439	拉那	-99
-4.204587	拌	-99
-4.239349	拌菜	-99
-3.976108	拍	-99
-3.63729	拍卖	-99
-4.172403	拍摄	-99
-4.239349	拍案而起	-99
-4.239349	拐卖	-99
-4.277138	拒绝	-99
-4.204587	拔牙	-99
-4.114411	拖	-99
-4.142439	拖延	-99
-4.142439	拖欠	-99
-4.239349	拚搏	-99
-4.204587	招待会	-99
-4.142439	拟	-99
-3.841409	拥	-99
-4.114411	拥军	-99
-3.374048	拥有	-99
-4.277138	拦腰	-99
-3.655773	拧	-99
-4.239349	拧紧	-99
-4.142439	拨	-99
-4.239349	拨款	-99
-4.142439	拨给	-99
-3.695282	拴	-99
-4.277138	拴住	-99
-4.277138	拼命	-99
-3.871373	拼搏	-99
-4.204587	拼杀	-99
-3.976108	拿	-99
-4.114411	拿出	-99
-4.204587	拿手	-99
-4.277138	持	-99
-4.142439	持家	-99
-4.204587	持枪	-99
-3.44347	挂	-99
-3.938319	挂钩	-99
-3.655773	指出	-99
-4.277138	指头	-99
-4.239349	指导员	-99
-4.172403	指挥	-99
-4.172403	指标	-99
-3.246649	按	-99
-4.088082	按年	-99
-3.63729	按照	-99
-4.239349	挑灯夜战	-99
-3.498987	挖	-99
-4.088082	挖土机	-99
-4.318531	挖掘	-99
-4.063258	挖潜	-99
-4.277138	挡住	-99
-4.239349	挣扎	-99
-4.277138	挥毫	-99
-4.142439	挨	-99
-4.239349	挨斗	-99
-4.114411	挨罚	-99
-4.364288	挪	-99
-4.277138	挪威	-99
-4.277138	挺拔	-99
-4.277138	挺身	-99
-4.142439	捅	-99
-4.415441	捆	-99
-4.114411	捆扎	-99
-4.142439	捉住	-99
-4.114411	捏造	-99
-4.318531	捐款	-99
-3.887167	捕捉	-99
-3.856133	捕捞	-99
-4.239349	捕杀	-99
-4.172403	捕获	-99
-4.172403	损	-99
-3.903558	损伤	-99
-4.114411	损坏	-99
-3.479682	损失	-99
-4.318531	损失惨重	-99
-3.570343	损害	-99
-3.586137	换	-99
-4.172403	换句话说	-99
-4.088082	换言之	-99
-4.204587	捧腹	-99
-3.277138	据	-99
-4.142439	据悉	-99
-3.827169	据说	-99
-4.318531	授予	-99
-4.277138	掉	-99
-4.114411	掌握	-99
-4.142439	掏出	-99
-4.364288	掏腰包	-99
-4.088082	掐	-99
-4.204587	排列	-99
-4.204587	排名	-99
-3.738747	排放	-99
-4.172403	排污	-99
-4.142439	排球	-99
-4.364288	排练	-99
-4.114411	掠过	-99
-3.976108	探	-99
-4.114411	探望	-99
-4.277138	探索	-99
-4.142439	探讨	-99
-4.204587	接任	-99
-3.646433	接受	-99
-4.114411	接来	-99
-4.239349	接班	-99
-4.239349	接着	-99
-4.277138	接过	-99
-4.277138	接连	-99
-3.938319	控制	-99
-3.738747	推	-99
-4.114411	推下	-99
-3.813381	推出	-99
-4.142439	推动	-99
-4.172403	推卸	-99
-4.088082	推土机	-99
-3.63729	推广	-99
-4.239349	推波助澜	-99
-4.277138	推进	-99
-4.277138	推进剂	-99
-4.277138	推销	-99
-4.204587	推门	-99
-4.277138	掩	-99
-4.204587	掩映	-99
-4.142439	措	-99
-4.172403	措施	-99
-4.239349	掺	-99
-4.239349	揆	-99
-3.887167	揉	-99
-4.142439	描绘	-99
-4.142439	提	-99
-4.142439	提供	-99
-3.685062	提出	-99
-4.318531	提议	-99
-3.555103	提高	-99
-3.685062	插	-99
-4.172403	握	-99
-3.920591	握手言和	-99
-4.172403	揭阳	-99
-4.172403	援引	-99
-4.172403	搅	-99
-4.204587	搏	-99
-3.665318	搜查	-99
-4.277138	搬迁	-99
-4.142439	摄制组	-99
-4.277138	摄影	-99
-3.871373	摄氏度	-99
-4.318531	摆	-99
-4.142439	摇一摇	-99
-4.415441	摇头	-99
-3.887167	摇晃	-99
-4.114411	摇曳	-99
-4.239349	摔倒	-99
-4.204587	摔成	-99
-4.204587	摔死	-99
-4.277138	摧毁	-99
-4.142439	摭	-99
-4.239349	撇	-99
-4.239349	撇嘴	-99
-4.142439	撕破	-99
-4.364288	撞	-99
-4.172403	撤	-99
-4.277138	撤军	-99
-4.239349	撤离	-99
-4.204587	撤销	-99
-4.142439	撩	-99
-3.920591	播	-99
-4.172403	播种	-99
-4.318531	撰写	-99
-4.114411	擅长	-99
-4.204587	操纵	-99
-3.976108	擦	-99
-4.204587	擦亮	-99
-4.277138	擦嘴	-99
-4.277138	擦拭	-99
-4.277138	擦掉	-99
-4.239349	支付	-99
-4.142439	支农	-99
-4.142439	支委	-99
-4.142439	支持	-99
-3.976108	支援	-99
-4.204587	支部书记	-99
-4.239349	收	-99
-4.318531	收住	-99
-4.239349	收入	-99
-3.813381	收容	-99
-4.277138	收徒	-99
-4.239349	收获	-99
-3.887167	收集	-99
-3.956803	改	-99
-3.675078	改为	-99
-4.172403	改任	-99
-4.142439	改变	-99
-4.172403	改名	-99
-4.239349	改正	-99
-4.277138	改选	-99
-3.976108	改造	-99
-3.762228	改革	-99
-3.871373	放	-99
-4.172403	放回	-99
-4.239349	放在	-99
-4.277138	放学后	-99
-4.142439	放弃	-99
-4.318531	放心	-99
-3.856133	放映	-99
-4.088082	放眼	-99
-4.142439	政令	-99
-4.204587	政企	-99
-4.172403	政委	-99
-3.578168	政府	-99
-4.172403	政治	-99
-3.827169	政策	-99
-3.841409	故	-99
-4.142439	故友	-99
-4.172403	故土	-99
-4.142439	效应	-99
-3.956803	效果	-99
-4.142439	效率	-99
-4.239349	效益	-99
-4.239349	敌人	-99
-4.239349	敌后	-99
-3.841409	救亡	-99
-4.172403	救命恩人	-99
-4.318531	救灾	-99
-4.114411	敖	-99
-4.277138	教义	-99
-4.114411	教书育人	-99
-4.172403	教务长	-99
-4.142439	教师	-99
-3.938319	教授	-99
-4.415441	教材	-99
-4.239349	教派	-99
-4.142439	教练	-99
-3.309931	教育	-99
-4.142439	敢	-99
-4.142439	敢做	-99
-3.856133	散	-99
-4.114411	散尽	-99
-3.920591	散文	-99
-4.318531	散落	-99
-4.239349	敦煌	-99
-4.204587	敬业	-99
-4.277138	敬仰	-99
-4.172403	敬老院	-99
-4.277138	敬酒	-99
-3.956803	数	-99
-4.364288	数学	-99
-3.813381	整	-99
-4.277138	整修	-99
-4.204587	整地	-99
-3.841409	整容	-99
-4.364288	整整	-99
-3.938319	整洁	-99
-4.172403	整顿	-99
-4.239349	整齐	-99
-3.289147	文	-99
-4.318531	文中	-99
-3.750329	文人	-99
-4.239349	文件	-99
-4.204587	文兰	-99
-3.277138	文化	-99
-4.204587	文化局	-99
-4.114411	文化馆	-99
-4.277138	文华	-99
-4.318531	文友	-99
-4.204587	文史	-99
-4.114411	文字	-99
-4.239349	文学	-99
-4.318531	文学作品	-99
-4.318531	文富	-99
-3.359489	文明	-99
-3.800017	文本	-99
-3.562656	文物	-99
-3.610961	文章	-99
-3.841409	文联	-99
-3.774463	文艺	-99
-4.318531	文言文	-99
-4.114411	文远	-99
-4.239349	文选	-99
-4.239349	文阁	-99
-4.277138	斑块	-99
-4.239349	斗	-99
-3.887167	料	-99
-4.142439	斜眼	-99
-4.277138	斟酒	-99
-4.142439	斥责	-99
-3.547679	断	-99
-4.277138	斯	-99
-4.114411	斯巴达	-99
-4.277138	斯里兰卡	-99
-3.098423	新	-99
-3.204587	新华社	-99
-4.318531	新型	-99
-3.976108	新娘	-99
-4.142439	新建	-99
-4.114411	新材料	-99
-4.142439	新概念英语	-99
-4.277138	新潮	-99
-3.841409	新的	-99
-4.364288	新立	-99
-4.172403	新药	-99
-4.172403	新路	-99
-4.239349	新郎	-99
-4.277138	新都	-99
-4.318531	新闻	-99
-4.142439	新颖	-99
-4.277138	新鲜	-99
-3.526139	方	-99
-4.204587	方便	-99
-4.142439	方圆	-99
-4.239349	方式	-99
-4.142439	方方正正	-99
-4.204587	方案	-99
-3.512351	方法	-99
-4.204587	方面	-99
-3.938319	旁	-99
-4.088082	旁观	-99
-4.204587	旅	-99
-4.172403	旅客	-99
-4.239349	旅游业	-99
-4.204587	旅游区	-99
-4.204587	旅长	-99
-4.204587	旋	-99
-4.172403	旋即	-99
-4.239349	旋转	-99
-3.903558	族	-99
-4.318531	旗	-99
-3.394252	无	-99
-4.204587	无一	-99
-4.318531	无光	-99
-4.142439	无害	-99
-4.172403	无影无踪	-99
-3.903558	无愧于	-99
-4.204587	无方	-99
-4.204587	无望	-99
-4.172403	无期徒刑	-99
-3.705747	无法	-99
-4.172403	无疑	-99
-4.204587	无碍	-99
-4.142439	无线	-99
-4.172403	无缘无故	-99
-3.359489	既	-99
-4.172403	既有	-99
-4.172403	既然	-99
-3.685062	日	-99
-4.172403	日久	-99
-4.277138	日伪	-99
-4.142439	日军	-99
-3.871373	日前	-99
-4.277138	日化	-99
-3.856133	日夜	-99
-3.774463	日子	-99
-4.172403	日新月异	-99
-4.114411	日方	-99
-4.239349	日期	-99
-3.467273	日本	-99
-3.309931	日电	-99
-4.142439	旧	-99
-3.920591	早	-99
-4.239349	早产	-99
-4.172403	早婚	-99
-3.903558	早已	-99
-4.415441	早市	-99
-4.277138	早衰	-99
-4.318531	早被	-99
-4.318531	旮旯	-99
-4.277138	旱情	-99
-4.114411	旱烟	-99
-2.866744	时	-99
-3.856133	时下	-99
-4.204587	时代	-99
-3.498987	时候	-99
-4.172403	时期	-99
-4.239349	时来运转	-99
-3.594255	时而	-99
-3.675078	时装	-99
-3.705747	时间	-99
-4.114411	旷野	-99
-4.318531	旺仔	-99
-4.318531	昂首	-99
-4.172403	昂首阔步	-99
-4.172403	昆仑	-99
-3.762228	昆明	-99
-3.938319	昌	-99
-4.142439	明亮	-99
-4.172403	明伦	-99
-4.063258	明天	-99
-4.277138	明太祖	-99
-4.318531	明年还要	-99
-3.827169	明显	-99
-4.114411	明晚	-99
-3.675078	明月	-99
-4.114411	明白	-99
-3.827169	明确	-99
-4.172403	明说	-99
-4.172403	明镜	-99
-4.318531	昏暗	-99
-3.646433	易	-99
-4.172403	昔日	-99
-4.204587	昙花一现	-99
-4.142439	星空	-99
-3.920591	映	-99
-4.204587	映入	-99
-4.239349	映入眼帘	-99
-4.318531	映衬	-99
-3.586137	春	-99
-4.318531	春天	-99
-4.204587	春山	-99
-4.114411	春意	-99
-4.172403	春秋战国	-99
-4.142439	春耕	-99
-4.277138	春色	-99
-4.172403	春节前	-99
-4.142439	春运	-99
-4.172403	春风	-99
-4.172403	春风吹	-99
-3.920591	昨天	-99
-4.204587	昭	-99
-2.294456	是	-99
-3.903558	是否	-99
-3.813381	是因为	-99
-4.172403	是指	-99
-4.142439	是日	-99
-4.172403	是由	-99
-4.114411	昵	-99
-3.887167	昼夜	-99
-3.920591	显得	-99
-3.887167	显然	-99
-4.114411	显而易见	-99
-4.239349	显赫	-99
-4.114411	晒	-99
-4.204587	晒太阳	-99
-3.938319	晒干	-99
-3.903558	晓	-99
-4.172403	晓庄	-99
-4.172403	晓得	-99
-4.172403	晕晕乎乎	-99
-3.505617	晚	-99
-4.277138	晚上	-99
-4.142439	晚间	-99
-4.172403	晦	-99
-4.172403	晦暗	-99
-4.277138	晨	-99
-3.920591	普	-99
-4.114411	普及	-99
-4.415441	普希金	-99
-3.716471	普遍	-99
-4.088082	景	-99
-3.996311	景况	-99
-4.172403	景色	-99
-4.172403	景观	-99
-3.871373	智慧	-99
-3.813381	智育	-99
-4.114411	暂	-99
-4.114411	暂缺	-99
-4.172403	暖春	-99
-4.114411	暖暖的	-99
-4.277138	暗	-99
-4.277138	暗中	-99
-3.841409	暗号	-99
-4.204587	暗盒	-99
-4.172403	暗红色	-99
-4.114411	暮	-99
-4.277138	曝晒	-99
-3.51919	曲	-99
-4.318531	曲折	-99
-4.172403	曲曲	-99
-4.204587	曲目	-99
-3.166242	更	-99
-4.172403	更加	-99
-4.318531	更多	-99
-4.204587	更大	-99
-4.239349	更早	-99
-3.570343	更是	-99
-4.142439	更正	-99
-4.239349	曹	-99
-3.956803	曹禺	-99
-3.136687	曾	-99
-4.142439	曾某	-99
-4.239349	曾经	-99
-4.318531	曾荫权	-99
-4.114411	曾随	-99
-3.265452	最	-99
-3.856133	最为	-99
-4.172403	最古老	-99
-3.555103	最后	-99
-4.239349	最后一块	-99
-4.204587	最后的	-99
-3.827169	最大	-99
-4.204587	最方便	-99
-4.277138	最终	-99
-3.350048	最近	-99
-3.727466	最长	-99
-4.142439	最高	-99
-4.172403	最高气温	-99
-3.354743	月	-99
-4.142439	月亮	-99
-4.204587	月华	-99
-4.088082	月卡	-99
-3.827169	月娥	-99
-4.142439	月山	-99
-3.827169	月底	-99
-4.088082	月收入	-99
-4.088082	月末	-99
-3.856133	月色	-99
-2.230749	有	-99
-3.594255	有一个	-99
-4.239349	有个人	-99
-3.449299	有些	-99
-3.235745	有人	-99
-3.399453	有关	-99
-4.142439	有几次	-99
-4.239349	有力	-99
-4.318531	有否	-99
-4.239349	有序	-99
-4.142439	有意无意	-99
-4.277138	有戏	-99
-4.142439	有成	-99
-3.856133	有所	-99
-4.277138	有所帮助	-99
-4.277138	有效	-99
-4.142439	有时	-99
-4.172403	有时候	-99
-4.277138	有期徒刑	-99
-4.114411	有机	-99
-4.239349	有权	-99
-4.204587	有根有据	-99
-3.956803	有点	-99
-4.172403	有特色	-99
-4.114411	有用	-99
-4.114411	有病	-99
-3.359489	有的	-99
-4.114411	有益	-99
-4.172403	有着	-99
-3.938319	有种	-99
-4.172403	有空	-99
-4.172403	有许多	-99
-4.172403	有趣	-99
-4.239349	有预谋	-99
-4.239349	朋友	-99
-4.239349	服	-99
-4.364288	服兵役	-99
-3.602527	服务	-99
-4.114411	服务项目	-99
-4.088082	服毒	-99
-3.938319	朔	-99
-3.420904	望	-99
-3.813381	望去	-99
-4.277138	望江	-99
-4.114411	望远镜	-99
-3.675078	朝	-99
-4.114411	朝云	-99
-4.172403	朝外	-99
-4.277138	朝政	-99
-4.318531	朦胧	-99
-3.547679	木	-99
-4.114411	木桩	-99
-4.277138	木棍	-99
-4.114411	木船	-99
-3.384032	未	-99
-4.172403	未曾	-99
-4.204587	未来	-99
-4.088082	未果	-99
-3.920591	未能	-99
-4.172403	未遂	-99
-3.841409	末	-99
-4.204587	末路	-99
-3.492456	本	-99
-4.204587	本书	-99
-4.239349	本人	-99
-4.172403	本厂	-99
-3.841409	本国	-99
-4.172403	本土	-99
-4.318531	本地	-99
-3.856133	本届	-99
-4.142439	本月	-99
-3.887167	本来	-99
-4.088082	本来面目	-99
-4.142439	本版	-99
-4.277138	本社	-99
-4.172403	本色	-99
-4.063258	本该	-99
-4.204587	本队	-99
-4.088082	札幌	-99
-4.114411	朱自清	-99
-4.204587	机	-99
-4.142439	机上	-99
-4.142439	机会	-99
-4.239349	机体	-99
-4.172403	机关	-99
-3.956803	机制	-99
-4.239349	机器	-99
-4.204587	机智	-99
-3.665318	机构	-99
-3.610961	杀	-99
-4.142439	杀人	-99
-4.142439	杀死	-99
-4.239349	杀鸡取卵	-99
-3.705747	杂	-99
-3.871373	杂志	-99
-4.277138	杂志社	-99
-4.142439	杂文	-99
-4.239349	杂物	-99
-4.142439	杂质	-99
-4.318531	权	-99
-4.172403	权威	-99
-3.887167	杆	-99
-3.685062	李	-99
-4.239349	李公朴	-99
-4.204587	李军	-99
-4.277138	李宁	-99
-4.277138	李瑞环	-99
-3.841409	李白	-99
-4.277138	李进	-99
-4.063258	材	-99
-3.695282	材料	-99
-3.128199	村	-99
-4.318531	村办	-99
-4.204587	村口	-99
-3.800017	村委会	-99
-4.142439	村子	-99
-3.800017	村民	-99
-3.594255	村里	-99
-4.142439	村长	-99
-3.856133	杜	-99
-3.750329	束	-99
-3.305694	条	-99
-4.239349	条件	-99
-4.318531	条约	-99
-2.741039	来	-99
-4.142439	来之不易	-99
-3.787052	来了	-99
-3.51919	来到	-99
-4.142439	来回	-99
-4.172403	来源	-99
-4.142439	来源于	-99
-3.956803	来说	-99
-4.364288	来这里	-99
-3.562656	杨	-99
-4.277138	杨军	-99
-3.871373	杨勇	-99
-4.142439	杨国忠	-99
-4.277138	杨春	-99
-3.841409	杨某	-99
-4.318531	杨柳	-99
-4.114411	杨洪基	-99
-3.841409	杨贵妃	-99
-4.114411	杨钰莹	-99
-4.142439	杭州	-99
-3.473433	杯	-99
-3.996311	杰	-99
-4.277138	杰拉尔	-99
-3.594255	松	-99
-4.088082	松手	-99
-3.871373	极	-99
-4.318531	极差	-99
-4.239349	构筑	-99
-3.762228	枇杷	-99
-4.142439	枉	-99
-4.142439	枕套	-99
-3.655773	林	-99
-3.871373	林业	-99
-4.142439	林区	-99
-4.142439	林文	-99
-4.277138	果汁	-99
-4.172403	果然	-99
-3.655773	枝	-99
-4.277138	枪	-99
-4.142439	架设	-99
-4.142439	柄	-99
-4.114411	柏油	-99
-3.420904	某	-99
-3.871373	某些	-99
-4.277138	某市	-99
-4.142439	某种	-99
-3.887167	某部	-99
-4.114411	柑桔	-99
-4.142439	染	-99
-3.887167	柔和	-99
-4.114411	柔情	-99
-4.277138	柔柔	-99
-4.114411	柔软	-99
-4.172403	柔道	-99
-4.114411	柜台	-99
-4.239349	查	-99
-4.364288	查出	-99
-4.239349	查扣	-99
-4.204587	查找	-99
-4.204587	查获	-99
-4.364288	查阅	-99
-4.277138	柬	-99
-4.277138	柬埔寨	-99
-4.239349	柯	-99
-3.578168	柳	-99
-4.142439	柳州	-99
-4.204587	柳暗花明	-99
-4.318531	柳某	-99
-4.114411	柳生	-99
-3.976108	柴	-99
-3.956803	标准	-99
-4.239349	标志	-99
-4.239349	标的	-99
-4.239349	标语	-99
-3.871373	栋	-99
-3.856133	树	-99
-4.114411	树影	-99
-4.142439	树木	-99
-4.114411	栖霞	-99
-4.142439	校服	-99
-3.871373	株	-99
-3.63729	样	-99
-4.142439	样子	-99
-3.813381	核	-99
-3.871373	核心	-99
-4.318531	核桃	-99
-3.841409	核算	-99
-3.705747	根	-99
-3.526139	根据	-99
-3.956803	根据地	-99
-4.142439	根本	-99
-3.938319	格外	-99
-4.277138	格尔	-99
-3.938319	栽	-99
-4.142439	桀纣	-99
-3.827169	桂	-99
-4.277138	桂云	-99
-4.114411	桂冠	-99
-3.619561	桃	-99
-4.318531	桃花庵	-99
-4.277138	案	-99
-4.204587	案犯	-99
-4.142439	桌上	-99
-4.142439	桐城	-99
-3.51919	桑	-99
-4.114411	桑拿浴	-99
-4.142439	桑蚕	-99
-4.277138	桓	-99
-3.996311	桥	-99
-4.204587	桥墩	-99
-3.871373	桥梁	-99
-3.675078	桩	-99
-4.277138	桶	-99
-4.172403	梅	-99
-4.142439	梅尔	-99
-4.172403	梅州	-99
-4.172403	梢	-99
-4.172403	梦	-99
-4.142439	梦中	-99
-4.142439	梦幻	-99
-4.204587	梦想	-99
-4.204587	梦龙	-99
-4.239349	梧	-99
-4.277138	梭罗	-99
-4.318531	梯队	-99
-3.887167	棉	-99
-4.114411	棉农	-99
-3.938319	棉布	-99
-3.956803	棉纺	-99
-4.204587	棋	-99
-3.655773	棍	-99
-4.277138	棍棒	-99
-4.318531	棒	-99
-4.318531	棒冰	-99
-4.172403	森	-99
-3.976108	棱	-99
-4.239349	棵	-99
-4.277138	椅子	-99
-4.239349	植根于	-99
-3.856133	植物	-99
-4.114411	椒盐	-99
-4.277138	椭圆	-99
-4.239349	椰子	-99
-4.172403	楞	-99
-4.172403	楷	-99
-3.562656	楼	-99
-4.142439	楼内	-99
-4.142439	楼区	-99
-4.088082	楼台	-99
-4.142439	楼外楼	-99
-4.172403	楼群	-99
-4.204587	概括	-99
-4.142439	概要	-99
-4.239349	概述	-99
-4.114411	榆树	-99
-4.142439	榜样	-99
-4.172403	榜首	-99
-4.088082	榨菜	-99
-3.492456	槐	-99
-4.239349	槐树	-99
-3.675078	槽	-99
-4.318531	樟树市	-99
-4.142439	模	-99
-3.903558	模范	-99
-4.277138	横	-99
-4.142439	横卧	-99
-4.239349	横杆	-99
-4.172403	横跨	-99
-4.172403	樱桃	-99
-4.277138	樵	-99
-4.172403	樾	-99
-4.172403	檀	-99
-4.172403	欠	-99
-3.293225	次	-99
-4.239349	次日	-99
-4.114411	欢	-99
-3.920591	欢迎	-99
-4.318531	欣然	-99
-4.277138	欣赏	-99
-3.841409	欧	-99
-4.277138	欧亚	-99
-4.172403	欧亚大陆	-99
-4.114411	欧文	-99
-3.340807	欧洲	-99
-4.142439	欧美	-99
-3.619561	欧阳	-99
-4.239349	欧阳修	-99
-3.675078	欲	-99
-4.142439	欲望	-99
-4.277138	欺	-99
-3.578168	款	-99
-4.114411	歇	-99
-4.114411	歌	-99
-3.331759	正	-99
-4.114411	正好	-99
-4.114411	正常	-99
-4.318531	正式	-99
-3.903558	正文	-99
-4.277138	正月	-99
-4.142439	正版	-99
-4.204587	正确	-99
-4.114411	正赶上	-99
-4.364288	正题	-99
-3.827169	此	-99
-4.142439	此刻	-99
-4.142439	此后	-99
-3.461198	此外	-99
-3.716471	此时	-99
-4.204587	此案	-99
-4.239349	步云	-99
-4.239349	步行	-99
-3.938319	武	-99
-4.114411	武器装备	-99
-3.695282	武官	-99
-3.827169	武昌鱼	-99
-4.142439	武汉	-99
-3.887167	武装	-99
-4.277138	歧义	-99
-4.172403	歪歪	-99
-4.172403	歹人	-99
-3.63729	歹徒	-99
-3.675078	死	-99
-3.555103	死亡	-99
-4.114411	死亡率	-99
-4.114411	死后	-99
-4.239349	死者	-99
-3.51919	残	-99
-4.088082	残缺	-99
-4.239349	殖	-99
-4.277138	殡	-99
-3.938319	殡仪馆	-99
-4.277138	殡葬	-99
-4.204587	殴打	-99
-3.461198	段	-99
-4.318531	殷切	-99
-4.142439	殷勤	-99
-4.277138	殷殷	-99
-3.887167	毅	-99
-4.277138	毋	-99
-4.114411	母	-99
-3.420904	母亲	-99
-3.547679	每	-99
-3.887167	每个	-99
-4.088082	每年	-99
-4.277138	每当	-99
-4.277138	每日	-99
-4.277138	每晚	-99
-3.903558	每月	-99
-4.277138	每样	-99
-4.364288	每逢	-99
-4.239349	毒品	-99
-4.172403	毒死	-99
-3.160168	比	-99
-4.364288	比如	-99
-4.277138	比昂	-99
-4.239349	比比	-99
-3.437717	比赛	-99
-4.318531	比较	-99
-4.063258	毕业后	-99
-4.239349	毗	-99
-4.114411	毛宁	-99
-4.277138	毛巾	-99
-4.277138	毛竹	-99
-4.142439	毛阿敏	-99
-4.239349	毫不	-99
-4.172403	毫米	-99
-4.172403	氏	-99
-3.610961	民	-99
-3.841409	民兵	-99
-4.114411	民办教师	-99
-4.142439	民族	-99
-4.142439	民族文化	-99
-3.871373	民歌	-99
-3.762228	民用	-99
-4.142439	民间	-99
-3.841409	气	-99
-4.088082	气宇	-99
-4.088082	气息	-99
-4.114411	气象	-99
-4.318531	气韵	-99
-4.114411	氟	-99
-3.920591	氢	-99
-3.887167	氧	-99
-3.841409	氧化	-99
-4.114411	氧气	-99
-3.871373	氯	-99
-3.254073	水	-99
-3.887167	水中	-99
-3.920591	水产	-99
-4.204587	水保	-99
-3.920591	水平	-99
-4.277138	水库	-99
-4.142439	水开了	-99
-4.277138	水杯	-99
-4.204587	水草	-99
-4.204587	水运	-99
-4.277138	永亮	-99
-4.277138	永利	-99
-4.088082	永定河	-99
-4.318531	永波	-99
-4.142439	永福	-99
-3.903558	永贞	-99
-4.142439	永贵	-99
-4.277138	永远	-99
-4.277138	汁	-99
-3.827169	求	-99
-4.364288	求医	-99
-4.172403	求学	-99
-4.142439	汇合	-99
-4.172403	汇流	-99
-3.871373	汇票	-99
-4.239349	汉	-99
-4.172403	汉口	-99
-4.088082	汉文	-99
-4.277138	汉王	-99
-4.204587	汉语拼音	-99
-4.172403	汉阳	-99
-4.277138	汗	-99
-4.277138	汗流满面	-99
-4.172403	江中	-99
-4.277138	江山市	-99
-4.204587	江泽民	-99
-4.172403	江淮	-99
-4.172403	江西	-99
-3.716471	池	-99
-4.114411	污	-99
-4.172403	污水	-99
-4.088082	汤	-99
-3.903558	汪	-99
-4.142439	汪精卫	-99
-4.172403	汰	-99
-4.318531	汽车	-99
-4.088082	沃	-99
-3.716471	沃土	-99
-4.063258	沃野	-99
-4.204587	沈	-99
-3.856133	沈阳	-99
-4.142439	沈阳市	-99
-3.827169	沉	-99
-4.277138	沉没	-99
-4.239349	沉重	-99
-4.172403	沉默寡言	-99
-4.277138	沏茶	-99
-4.172403	沐浴	-99
-4.114411	沙子	-99
-3.148269	没	-99
-4.318531	没事	-99
-3.18181	没有	-99
-4.204587	没有办法	-99
-4.172403	没有必要	-99
-4.277138	没有我	-99
-4.142439	没练	-99
-4.142439	沧源	-99
-4.114411	沫	-99
-4.239349	沮丧	-99
-3.996311	河北省	-99
-4.239349	河南	-99
-4.172403	河流	-99
-4.172403	河源	-99
-4.142439	河谷	-99
-4.172403	油	-99
-4.239349	油印	-99
-3.813381	油层	-99
-3.920591	油田	-99
-4.239349	油菜	-99
-4.172403	治	-99
-4.204587	治学	-99
-4.204587	治平	-99
-4.277138	治理	-99
-4.277138	治病	-99
-4.277138	沾上	-99
-4.277138	沿	-99
-4.277138	沿海	-99
-4.239349	沿用	-99
-3.871373	泉	-99
-3.505617	法	-99
-4.239349	法医	-99
-4.318531	法律	-99
-4.088082	法院	-99
-4.239349	泛	-99
-4.142439	泠	-99
-4.204587	波	-99
-4.239349	波尔	-99
-4.172403	波恩	-99
-4.204587	波浪	-99
-4.172403	波涛	-99
-4.142439	波黑	-99
-4.277138	泥	-99
-4.114411	泥塘	-99
-4.142439	泥水	-99
-3.938319	注射	-99
-3.956803	注意	-99
-3.871373	泰	-99
-4.277138	泰山	-99
-4.114411	泳道	-99
-4.204587	泵	-99
-4.277138	泼墨	-99
-3.54038	洋	-99
-4.277138	洋溢	-99
-4.114411	洗	-99
-4.204587	洗净	-99
-4.277138	洗涤剂	-99
-4.088082	洗衣做饭	-99
-4.204587	洛	-99
-4.277138	洛夫	-99
-4.172403	洞	-99
-4.142439	洞悉	-99
-4.172403	洞穴	-99
-4.172403	津贴	-99
-4.172403	洪	-99
-4.142439	洪森	-99
-3.533201	洪水	-99
-4.277138	洪都拉斯	-99
-4.318531	洪魔	-99
-4.318531	洱	-99
-3.887167	洱海	-99
-4.114411	洲际	-99
-4.142439	活	-99
-4.142439	活佛	-99
-3.562656	活动	-99
-4.114411	活用	-99
-4.318531	洽谈	-99
-3.410046	派	-99
-4.277138	派人	-99
-4.142439	派兵	-99
-4.114411	派出所	-99
-4.142439	流	-99
-4.114411	流入	-99
-4.172403	流动资金	-99
-4.172403	流弊	-99
-4.277138	流水	-99
-4.239349	流浪	-99
-4.172403	流行	-99
-4.142439	浅滩	-99
-3.920591	济南	-99
-4.277138	济宁	-99
-4.239349	浑	-99
-4.204587	浑圆	-99
-4.204587	浑身	-99
-3.938319	浓	-99
-3.800017	浓烈	-99
-4.277138	浙江	-99
-4.277138	浙江大学	-99
-4.172403	浩大	-99
-4.114411	浪	-99
-4.277138	浮标	-99
-4.172403	浴	-99
-4.239349	浴血	-99
-4.114411	海	-99
-4.239349	海上	-99
-4.172403	海内外	-99
-3.903558	海外	-99
-4.172403	海峡	-99
-4.142439	海拔	-99
-3.841409	海星	-99
-3.871373	海民	-99
-4.114411	海水	-99
-4.277138	海湾战争	-99
-4.114411	海豚	-99
-4.172403	海边	-99
-4.204587	海阔天空	-99
-4.277138	海风	-99
-4.277138	浸入	-99
-3.938319	涂料	-99
-3.685062	消息	-99
-4.239349	消灭	-99
-4.364288	消灾	-99
-4.114411	消耗	-99
-4.142439	消费者	-99
-4.172403	消逝	-99
-4.277138	涉县	-99
-3.841409	润	-99
-4.142439	涨	-99
-3.976108	液	-99
-4.277138	液体	-99
-4.114411	淋	-99
-4.204587	淋淋	-99
-4.204587	淋漓	-99
-4.318531	淌	-99
-3.727466	淡	-99
-4.239349	淡紫	-99
-4.277138	淦	-99
-4.172403	淮	-99
-4.142439	淮北	-99
-4.142439	淮南	-99
-4.277138	淮安	-99
-4.172403	淮河	-99
-3.813381	淮阴	-99
-3.384032	深	-99
-4.172403	深入	-99
-4.142439	深切	-99
-3.956803	深夜	-99
-4.318531	深度	-99
-4.318531	深水港	-99
-4.277138	深沉	-99
-4.114411	深秋	-99
-4.239349	深红	-99
-4.142439	深远	-99
-4.142439	深陷	-99
-4.172403	混	-99
-4.239349	混帐	-99
-4.114411	淹死	-99
-4.172403	淹没	-99
-4.277138	清代	-99
-4.277138	清华大学	-99
-4.172403	清廷	-99
-4.172403	清新	-99
-3.956803	清晨	-99
-4.172403	清朝	-99
-4.277138	清楚	-99
-4.318531	清澈	-99
-4.172403	清理	-99
-4.088082	清蒸	-99
-3.871373	渐	-99
-3.841409	渔	-99
-3.856133	渔民	-99
-4.114411	渔网	-99
-3.887167	渔船	-99
-3.813381	渗透	-99
-4.114411	渣	-99
-4.172403	温	-99
-4.204587	温州	-99
-4.277138	温柔	-99
-4.142439	温饱	-99
-3.903558	港	-99
-3.813381	港区	-99
-4.114411	港澳	-99
-4.277138	渴	-99
-3.813381	渴望	-99
-3.762228	游	-99
-3.594255	游人	-99
-3.727466	游客	-99
-3.738747	游泳	-99
-4.277138	游泳池	-99
-4.204587	游玩	-99
-4.142439	湍流	-99
-3.856133	湖	-99
-4.114411	湖北省	-99
-4.172403	湖口县	-99
-4.277138	湖畔	-99
-4.204587	湘江	-99
-4.318531	湾	-99
-4.172403	湿润	-99
-4.142439	源于	-99
-4.318531	源头	-99
-4.204587	源源	-99
-4.318531	溪	-99
-4.204587	溶溶	-99
-4.277138	滑过	-99
-4.277138	滔滔	-99
-3.586137	滚	-99
-4.415441	滚圆	-99
-4.277138	滚滚	-99
-4.239349	滚雪球	-99
-4.204587	滞销	-99
-3.455208	满	-99
-4.142439	满口	-99
-4.239349	满头	-99
-4.142439	满山遍野	-99
-4.142439	满怀	-99
-4.277138	满意	-99
-4.364288	满足	-99
-4.239349	滤	-99
-4.172403	滥	-99
-3.871373	滥用	-99
-3.887167	滨	-99
-4.114411	滩	-99
-4.239349	漂	-99
-4.172403	漂亮	-99
-4.318531	漆黑	-99
-4.142439	漏网之鱼	-99
-3.277138	演出	-99
-3.437717	演员	-99
-3.841409	演唱	-99
-4.142439	演奏	-99
-4.172403	演职员	-99
-4.142439	演艺圈	-99
-4.142439	潇洒	-99
-3.63729	潘	-99
-4.142439	潮流	-99
-4.142439	潮湿	-99
-4.277138	澄	-99
-4.114411	澡	-99
-3.594255	澳	-99
-4.114411	澳大利亚	-99
-3.841409	激光	-99
-4.172403	激化	-99
-3.938319	激烈	-99
-4.114411	濡	-99
-4.142439	濡染	-99
-4.172403	濮阳	-99
-4.277138	瀑	-99
-4.114411	瀑布	-99
-4.142439	火	-99
-4.239349	火焰	-99
-4.142439	火焰山	-99
-4.318531	火箭	-99
-4.114411	火药	-99
-4.142439	火起来	-99
-4.172403	火车站	-99
-4.142439	灭	-99
-4.277138	灭亡	-99
-4.277138	灭菌	-99
-3.827169	灯	-99
-4.172403	灰色	-99
-4.239349	灵活	-99
-3.841409	灵魂	-99
-4.142439	灼	-99
-4.239349	灾	-99
-4.172403	灾区	-99
-4.114411	灾害	-99
-4.172403	灾民	-99
-4.114411	炀	-99
-4.172403	炊事员	-99
-4.204587	炊烟	-99
-4.063258	炎热	-99
-4.204587	炒	-99
-4.088082	炒肉丝	-99
-4.239349	炒股	-99
-4.088082	炒鸡蛋	-99
-4.204587	炖	-99
-4.142439	炫	-99
-4.172403	炮眼	-99
-4.172403	炸药	-99
-4.277138	炸雷	-99
-3.449299	点	-99
-3.787052	点点	-99
-4.142439	点缀	-99
-4.204587	炼	-99
-4.142439	炼焦	-99
-3.841409	炼钢	-99
-3.871373	烂	-99
-4.142439	烂片	-99
-3.827169	烈	-99
-3.340807	烟	-99
-4.142439	烟消云散	-99
-4.142439	烟筒	-99
-3.695282	烟草	-99
-4.318531	烟草公司	-99
-4.172403	烟酒	-99
-3.956803	烟雾	-99
-4.142439	烤	-99
-3.787052	烧	-99
-4.114411	烧鱼	-99
-4.239349	热潮	-99
-4.172403	热点	-99
-4.114411	热烈	-99
-4.277138	热爱	-99
-4.088082	热血沸腾	-99
-4.277138	热闹	-99
-3.956803	然	-99
-3.956803	然后	-99
-3.602527	然而	-99
-4.088082	煎	-99
-4.142439	煤炭	-99
-4.114411	煤矿	-99
-4.142439	煤窑	-99
-3.887167	照	-99
-3.856133	照旧	-99
-4.204587	照片	-99
-4.142439	照镜子	-99
-3.695282	照顾	-99
-4.142439	煽	-99
-3.871373	熊	-99
-4.277138	熊猫	-99
-4.114411	熏陶	-99
-4.172403	熏鱼	-99
-4.088082	熬	-99
-4.239349	燃	-99
-4.142439	燃烧	-99
-4.204587	燕	-99
-4.318531	燕燕	-99
-4.114411	爆炸	-99
-4.239349	爪	-99
-4.142439	爬	-99
-4.318531	爬坡	-99
-4.204587	爬起来	-99
-2.962505	爱	-99
-4.318531	爱吃	-99
-4.142439	爱国	-99
-4.364288	爱国主义	-99
-4.088082	爱好者	-99
-4.172403	爱妃	-99
-4.318531	爱子	-99
-3.871373	爱尔兰	-99
-4.364288	爱岗	-99
-4.318531	爱惜	-99
-4.277138	爱玩	-99
-4.142439	爱祖国	-99
-4.142439	爱花	-99
-4.172403	爱达	-99
-4.114411	父	-99
-3.856133	父亲	-99
-3.887167	爷爷	-99
-4.114411	爸	-99
-3.63729	爹	-99
-4.142439	爽	-99
-3.492456	片	-99
-4.364288	片刻	-99
-4.239349	片片	-99
-3.856133	牌	-99
-4.239349	牌子	-99
-3.827169	牙	-99
-3.841409	牙刷	-99
-4.114411	牙床	-99
-3.903558	牙根	-99
-4.172403	牙签	-99
-4.088082	牙膏	-99
-4.318531	牙轮	-99
-4.142439	牙齿	-99
-4.142439	牙龈	-99
-4.142439	牙龈出血	-99
-3.369141	牛	-99
-4.142439	牛场	-99
-4.172403	牛比	-99
-4.239349	牛津	-99
-4.142439	牛肉	-99
-3.903558	牟	-99
-4.114411	牡丹	-99
-3.856133	牧	-99
-4.204587	牧民	-99
-3.887167	物	-99
-3.871373	物体	-99
-4.114411	物像	-99
-4.204587	物品	-99
-4.172403	物资	-99
-4.114411	牵	-99
-4.318531	牵肠挂肚	-99
-3.345403	特	-99
-3.533201	特别	-99
-4.114411	特地	-99
-4.277138	特征	-99
-4.142439	特意	-99
-4.172403	特效	-99
-3.856133	特此	-99
-3.498987	特殊	-99
-3.827169	特种	-99
-4.239349	特种部队	-99
-4.239349	特聘	-99
-4.142439	特质	-99
-4.142439	特邀	-99
-3.695282	犯	-99
-4.239349	犯罪	-99
-3.695282	状	-99
-4.114411	犹	-99
-4.277138	狂	-99
-4.142439	狂人	-99
-4.172403	狂喜	-99
-4.114411	狂风	-99
-4.172403	狎	-99
-4.172403	狙击	-99
-4.142439	狡猾	-99
-4.239349	狭小	-99
-4.239349	狼	-99
-4.172403	狼嚎	-99
-3.976108	狼牙	-99
-3.871373	猎物	-99
-4.239349	猛	-99
-4.142439	猛增	-99
-4.114411	猛烈	-99
-4.172403	猩猩	-99
-4.277138	猪	-99
-4.239349	猫头鹰	-99
-3.841409	献艺	-99
-4.114411	猴	-99
-4.142439	玄	-99
-4.142439	玄乎	-99
-4.239349	玄奥	-99
-4.318531	玄妙	-99
-4.172403	玄武湖	-99
-3.787052	率	-99
-4.318531	率先	-99
-3.976108	率领	-99
-3.389112	玉	-99
-4.142439	玉和	-99
-4.364288	玉安	-99
-4.204587	玉杰	-99
-4.277138	玉米	-99
-4.277138	玉米面	-99
-4.142439	玉英	-99
-2.810675	王	-99
-4.318531	王云	-99
-4.239349	王亚	-99
-4.204587	王伟	-99
-3.813381	王位	-99
-4.172403	王俊	-99
-4.114411	王储	-99
-4.142439	王军霞	-99
-4.277138	王刚	-99
-4.204587	王叔	-99
-4.318531	王国	-99
-3.938319	王培	-99
-4.142439	王婆	-99
-4.277138	王媛	-99
-4.277138	王宫	-99
-4.114411	王家	-99
-4.277138	王开	-99
-4.318531	王新	-99
-4.277138	王旭东	-99
-4.204587	王某	-99
-4.088082	王爷	-99
-4.142439	王琴	-99
-4.204587	王磊	-99
-4.277138	王维	-99
-4.114411	王英	-99
-4.172403	王茂	-99
-4.204587	王蕾	-99
-4.318531	王铁	-99
-4.239349	王雁	-99
-4.204587	玛	-99
-4.142439	玛雅文明	-99
-4.063258	玩乐	-99
-4.318531	玩命	-99
-4.114411	玩忽职守	-99
-4.142439	玩意	-99
-4.239349	玩意儿	-99
-3.976108	玩物	-99
-4.364288	玩玩	-99
-4.277138	玩耍	-99
-3.920591	环	-99
-3.903558	环形	-99
-4.277138	环视	-99
-4.172403	现	-99
-3.871373	现在	-99
-4.172403	现场	-99
-3.827169	现年	-99
-4.239349	现成	-99
-4.142439	现有	-99
-4.142439	现状	-99
-3.871373	现象	-99
-4.142439	现阶段	-99
-4.239349	玻利维亚	-99
-4.204587	玻璃纸	-99
-4.142439	珍	-99
-4.142439	珍贵	-99
-3.827169	珠	-99
-4.277138	班	-99
-4.239349	班子	-99
-4.204587	班房	-99
-3.750329	球	-99
-3.903558	球员	-99
-3.856133	理	-99
-4.239349	理学	-99
-4.277138	理想	-99
-4.114411	理智	-99
-3.871373	理解	-99
-4.142439	理论	-99
-3.727466	理顺	-99
-4.204587	琢磨	-99
-4.204587	琳	-99
-4.318531	琼	-99
-4.114411	琼花	-99
-4.142439	瑗	-99
-4.277138	瑛	-99
-4.277138	瑞典	-99
-4.277138	瑞特	-99
-4.142439	瑶山	-99
-4.277138	瓜	-99
-3.389112	瓦	-99
-4.017501	瓦努阿图	-99
-4.114411	瓦斯	-99
-4.204587	瓯海	-99
-4.114411	瓶口	-99
-4.277138	瓶子	-99
-3.841409	瓷	-99
-4.172403	甘甜	-99
-4.142439	甘薯	-99
-3.920591	甚至	-99
-3.856133	甜	-99
-4.142439	甜润	-99
-3.512351	生	-99
-4.142439	生下	-99
-3.426436	生产	-99
-4.017501	生产线	-99
-4.142439	生产能力	-99
-4.415441	生儿育女	-99
-3.51919	生命	-99
-3.903558	生在	-99
-4.172403	生存	-99
-3.903558	生擒	-99
-4.172403	生油	-99
-3.420904	生活	-99
-4.239349	生活习性	-99
-4.239349	生活习惯	-99
-4.204587	生活区	-99
-3.841409	生病	-99
-3.871373	生育	-99
-4.204587	生食	-99
-2.447542	用	-99
-4.142439	用上	-99
-4.318531	用书	-99
-3.887167	用人单位	-99
-4.364288	用以	-99
-4.114411	用意	-99
-4.114411	用户	-99
-4.204587	用时	-99
-4.239349	用来	-99
-4.172403	用电	-99
-3.920591	用药	-99
-4.277138	用餐	-99
-3.586137	甩	-99
-4.142439	甫	-99
-4.239349	田里	-99
-3.410046	由	-99
-3.318531	由于	-99
-4.277138	由此	-99
-4.142439	甲鱼	-99
-4.204587	申	-99
-4.172403	申请人	-99
-4.277138	电力	-99
-4.239349	电动	-99
-3.841409	电厂	-99
-3.610961	电子	-99
-3.716471	电影	-99
-4.142439	电炉	-99
-4.114411	电热	-99
-4.114411	电站	-99
-3.871373	电网	-99
-4.142439	电脑技术	-99
-4.142439	电视	-99
-3.956803	电话	-99
-3.903558	男人	-99
-4.172403	男女	-99
-3.762228	男子	-99
-4.114411	男宾	-99
-4.172403	男性	-99
-4.142439	男装	-99
-3.695282	画	-99
-4.277138	画册	-99
-4.142439	画笔	-99
-4.142439	画面	-99
-4.277138	画风	-99
-4.114411	畅快	-99
-4.172403	界定	-99
-4.277138	畔	-99
-4.204587	留	-99
-3.903558	留下	-99
-4.204587	留在	-99
-4.239349	留影	-99
-4.239349	留念	-99
-4.204587	畜	-99
-4.239349	略带	-99
-4.172403	番禺	-99
-4.063258	畴	-99
-4.204587	畸形	-99
-4.142439	疆	-99
-4.142439	疏	-99
-4.172403	疏浚	-99
-4.277138	疖	-99
-4.172403	疟疾	-99
-3.976108	疫苗	-99
-4.114411	疯了	-99
-4.114411	疯子	-99
-3.695282	疯牛病	-99
-4.142439	疲软	-99
-4.204587	疵	-99
-4.017501	疼爱	-99
-4.142439	疼痛	-99
-4.364288	疾病	-99
-3.51919	病	-99
-4.172403	病人	-99
-4.142439	病因	-99
-4.277138	病愈	-99
-4.239349	病房里	-99
-4.204587	病毒	-99
-4.277138	病理	-99
-4.204587	痊愈	-99
-4.142439	痛	-99
-4.277138	痛楚	-99
-3.976108	痛苦	-99
-4.277138	痴	-99
-4.114411	瘟疫	-99
-4.318531	瘦西湖	-99
-4.239349	瘦高	-99
-4.172403	癌症	-99
-4.277138	癖	-99
-3.903558	登	-99
-4.114411	登台	-99
-4.318531	登记	-99
-3.449299	白	-99
-3.827169	白云	-99
-3.685062	白天	-99
-4.239349	白宫	-99
-4.277138	白帆	-99
-4.172403	白昼	-99
-4.142439	白棉	-99
-3.813381	白白	-99
-4.239349	白色	-99
-3.727466	白藤	-99
-4.172403	百万富翁	-99
-4.172403	百业	-99
-4.239349	百人	-99
-4.142439	百余	-99
-4.142439	百出	-99
-3.841409	百分之二十	-99
-4.172403	百分点	-99
-4.204587	百变	-99
-4.239349	百合	-99
-4.277138	百姓	-99
-3.887167	百年	-99
-4.277138	百米	-99
-4.318531	百般	-99
-4.239349	百花	-99
-4.204587	百草园	-99
-1.427998	的	-99
-4.277138	的确	-99
-4.114411	皆	-99
-3.841409	皇	-99
-4.114411	皇家	-99
-4.172403	皖	-99
-3.695282	皮	-99
-4.277138	皮下	-99
-4.204587	皮带	-99
-4.142439	皮球	-99
-3.498987	盆	-99
-4.114411	盆浴	-99
-3.920591	盈	-99
-4.114411	盈盈	-99
-4.088082	盎然	-99
-3.281104	盐	-99
-4.204587	盐城市	-99
-4.172403	盐酸	-99
-4.142439	监督	-99
-3.887167	盒	-99
-3.555103	盖	-99
-4.114411	盖上	-99
-4.114411	盖儿	-99
-4.172403	盖楼	-99
-3.871373	盗	-99
-4.114411	盗墓	-99
-4.142439	盗版	-99
-4.204587	盗窃	-99
-3.327305	盘	-99
-4.142439	盘绕	-99
-4.204587	盛产	-99
-3.887167	目光	-99
-3.44347	目前	-99
-3.547679	目标	-99
-3.920591	目的	-99
-4.277138	目睹	-99
-4.277138	目送	-99
-4.088082	盲文	-99
-3.920591	直	-99
-4.142439	直到	-99
-4.318531	直拨	-99
-3.956803	直接	-99
-4.172403	直接进入	-99
-4.114411	相传	-99
-4.142439	相信我	-99
-4.172403	相关知识	-99
-4.239349	相对	-99
-4.239349	相应	-99
-4.114411	相当	-99
-4.364288	相当于	-99
-4.204587	相悖	-99
-4.142439	相熟	-99
-4.114411	相继	-99
-4.318531	盼	-99
-4.364288	盼望	-99
-4.114411	省	-99
-3.685062	省区	-99
-3.228626	看	-99
-3.856133	看一看	-99
-3.856133	看不到	-99
-4.142439	看不清	-99
-4.239349	看中	-99
-3.956803	看了	-99
-3.920591	看到	-99
-4.172403	看完	-99
-4.364288	看护	-99
-4.277138	看望	-99
-4.063258	看看	-99
-3.426436	看着	-99
-3.479682	看见	-99
-4.239349	看起来	-99
-4.204587	真	-99
-4.239349	真名	-99
-4.114411	真情	-99
-3.856133	真是	-99
-3.903558	真正	-99
-4.277138	真正意义	-99
-4.114411	眨	-99
-4.239349	眺望	-99
-3.956803	眼	-99
-3.938319	眼下	-99
-4.277138	眼光	-99
-4.239349	眼前	-99
-4.318531	眼泪	-99
-4.277138	眼珠子	-99
-3.903558	眼看	-99
-4.142439	眼睑	-99
-3.750329	眼睛	-99
-4.318531	眼色	-99
-4.277138	眼角	-99
-2.51032	着	-99
-4.204587	着地	-99
-4.172403	着急	-99
-4.172403	着手	-99
-3.887167	睡	-99
-4.318531	瞄准	-99
-3.976108	瞎子	-99
-4.142439	瞎说	-99
-4.142439	瞠目结舌	-99
-3.938319	瞧	-99
-4.239349	矍铄	-99
-3.856133	矛盾	-99
-4.204587	矣	-99
-4.239349	知	-99
-4.114411	知道	-99
-4.239349	知音	-99
-4.204587	短	-99
-4.277138	短暂	-99
-4.239349	短期	-99
-4.114411	短短	-99
-4.239349	短篇小说	-99
-4.415441	矮	-99
-4.204587	矮小	-99
-3.903558	石	-99
-4.172403	石器时代	-99
-4.172403	石头	-99
-4.239349	石柱	-99
-4.204587	石棉瓦	-99
-4.114411	石油	-99
-4.172403	石雕	-99
-4.142439	矽	-99
-3.44347	矿	-99
-4.318531	矿务局	-99
-4.142439	矿区	-99
-4.172403	矿渣	-99
-4.114411	码	-99
-4.172403	砌	-99
-4.172403	砌墙	-99
-4.172403	研	-99
-4.277138	研习	-99
-3.610961	研制	-99
-3.369141	研究	-99
-4.142439	研究所	-99
-4.277138	砖头	-99
-4.277138	砚	-99
-4.172403	破	-99
-3.903558	破产	-99
-4.239349	破土	-99
-4.318531	破坏	-99
-4.142439	破布	-99
-4.172403	破裂	-99
-4.204587	破财消灾	-99
-4.277138	砸	-99
-4.142439	硕大	-99
-4.239349	硕果	-99
-3.594255	硬	-99
-3.903558	硬件	-99
-4.277138	硬化	-99
-4.204587	硬朗	-99
-4.142439	硬骨头	-99
-3.938319	确	-99
-3.813381	确保	-99
-3.813381	碑	-99
-3.369141	碗	-99
-4.114411	碗口	-99
-4.114411	碣	-99
-4.277138	碰上	-99
-4.172403	碰到	-99
-4.142439	碰巧	-99
-4.239349	碰撞	-99
-3.871373	碳	-99
-3.841409	碾	-99
-4.172403	磁性	-99
-4.318531	磋商	-99
-4.277138	磨成	-99
-3.685062	磨损	-99
-4.142439	磨擦	-99
-4.318531	礁石	-99
-4.239349	示弱	-99
-4.114411	礼	-99
-4.114411	礼品	-99
-4.114411	社	-99
-4.277138	社会	-99
-4.204587	祖	-99
-4.318531	祖母	-99
-4.172403	祝	-99
-4.239349	祝福	-99
-3.727466	神	-99
-4.114411	神奇	-99
-4.142439	神态	-99
-4.204587	神汉	-99
-4.277138	神韵	-99
-3.675078	票	-99
-4.172403	票款	-99
-4.239349	祯	-99
-4.142439	祸	-99
-3.871373	禁止	-99
-3.938319	福	-99
-3.871373	福临	-99
-4.204587	福安	-99
-4.172403	福耀	-99
-4.172403	禹	-99
-3.976108	离	-99
-4.142439	离开	-99
-4.172403	禽	-99
-4.318531	禽畜	-99
-4.239349	禽类	-99
-3.938319	秀丽	-99
-4.114411	秀云	-99
-4.088082	秀媚	-99
-4.239349	秀玲	-99
-4.277138	私	-99
-4.318531	私有	-99
-4.239349	秃鹫	-99
-3.887167	秋	-99
-4.239349	秋天	-99
-3.23935	种	-99
-3.956803	种子	-99
-4.318531	种族	-99
-3.675078	种植	-99
-4.172403	种种	-99
-4.204587	种草	-99
-3.610961	科	-99
-3.976108	科威特	-99
-3.841409	科学家	-99
-3.856133	科技	-99
-4.318531	科研	-99
-4.114411	秘书	-99
-4.204587	秘书长	-99
-4.239349	秘诀	-99
-4.239349	秘鲁	-99
-3.655773	秦	-99
-3.841409	秦俑	-99
-4.277138	秦朝	-99
-4.114411	秦都区	-99
-4.142439	秧田	-99
-4.239349	秧苗	-99
-4.114411	秩序	-99
-4.172403	积	-99
-3.920591	积极	-99
-3.655773	称	-99
-3.774463	称为	-99
-3.956803	称号	-99
-4.172403	称誉	-99
-3.976108	称赞	-99
-4.114411	移	-99
-4.277138	移到	-99
-4.142439	移动	-99
-4.239349	移栽	-99
-4.114411	移送	-99
-4.239349	稀	-99
-4.239349	稀奇	-99
-4.239349	稀薄	-99
-4.239349	稀饭	-99
-4.204587	程	-99
-4.142439	程度	-99
-4.318531	程控	-99
-3.655773	税	-99
-4.204587	税务所	-99
-4.114411	税收	-99
-4.088082	税法	-99
-4.172403	税金	-99
-4.142439	税额	-99
-4.142439	稗	-99
-3.871373	稳	-99
-3.887167	稳定	-99
-4.204587	稳扎稳打	-99
-4.114411	稻草	-99
-4.114411	穴	-99
-4.239349	究	-99
-3.473433	穷	-99
-4.239349	穷追不舍	-99
-4.204587	穷途	-99
-3.578168	空	-99
-4.239349	空位	-99
-4.142439	空军	-99
-3.920591	空气	-99
-4.142439	空留	-99
-4.204587	空调器	-99
-4.204587	空运	-99
-3.526139	穿	-99
-4.172403	穿梭	-99
-4.277138	穿着	-99
-4.114411	穿过	-99
-4.318531	突兀	-99
-3.655773	突出	-99
-4.114411	突发奇想	-99
-4.204587	突围	-99
-3.738747	突然	-99
-4.239349	突破	-99
-4.142439	突破口	-99
-4.204587	窃贼	-99
-3.727466	窄	-99
-4.114411	窄窄	-99
-3.903558	窑	-99
-4.239349	窑洞	-99
-3.996311	窗口	-99
-4.239349	窗外	-99
-4.277138	窗子	-99
-3.887167	窜	-99
-4.088082	窜改	-99
-4.204587	窝	-99
-4.172403	窝囊	-99
-4.142439	窝头	-99
-4.277138	窝窝头	-99
-4.088082	窥见	-99
-3.813381	窦	-99
-4.114411	窦太后	-99
-4.114411	立	-99
-4.318531	立功	-99
-3.856133	立即	-99
-4.204587	立场	-99
-4.142439	立强	-99
-4.204587	立论	-99
-4.172403	立身	-99
-3.956803	站	-99
-4.239349	站岗	-99
-4.204587	竞	-99
-4.277138	竞争力	-99
-4.277138	竞赛	-99
-4.172403	竞选	-99
-3.738747	竟	-99
-4.239349	竟是	-99
-3.841409	竟然	-99
-4.114411	童话	-99
-4.239349	竭泽而渔	-99
-3.762228	端	-99
-3.738747	竹	-99
-4.277138	竹器	-99
-3.827169	笑	-99
-4.172403	笑着	-99
-4.088082	笔下	-99
-4.318531	笔墨	-99
-3.695282	笠	-99
-4.415441	笨	-99
-4.277138	第	-99
-3.920591	第一	-99
-4.172403	第一大	-99
-4.114411	第一批	-99
-4.172403	第一线	-99
-4.277138	第三	-99
-4.277138	第三名	-99
-4.318531	第二年	-99
-4.277138	第五	-99
-4.204587	第六	-99
-4.142439	第四册	-99
-4.277138	笼	-99
-2.522651	等	-99
-4.088082	等于	-99
-3.856133	等人	-99
-4.172403	等待	-99
-4.239349	等等	-99
-4.204587	筋	-99
-4.204587	筒	-99
-4.277138	答复	-99
-4.277138	答案	-99
-3.976108	筷子	-99
-3.813381	筹	-99
-4.204587	筹备	-99
-4.239349	筹措	-99
-3.665318	筹款	-99
-4.172403	筹资	-99
-4.239349	签名	-99
-4.318531	签约	-99
-4.172403	签署	-99
-4.318531	签订	-99
-4.204587	简直	-99
-3.461198	算	-99
-3.976108	算不算	-99
-4.114411	管	-99
-4.142439	管制	-99
-3.665318	管理	-99
-3.841409	管理局	-99
-4.142439	箭头	-99
-4.114411	箱	-99
-4.239349	箱内	-99
-3.887167	篇	-99
-4.142439	篮	-99
-3.827169	篮球	-99
-4.114411	篮球场	-99
-4.142439	簇	-99
-4.277138	籍	-99
-3.486022	米	-99
-4.172403	米粒	-99
-4.114411	米高	-99
-3.774463	类	-99
-4.204587	粉	-99
-4.172403	粉末	-99
-4.239349	粉碎	-99
-4.204587	粉红	-99
-3.685062	粗	-99
-4.172403	粗俗	-99
-4.239349	粗糙	-99
-4.114411	粗细	-99
-4.114411	粗豪	-99
-4.142439	粘	-99
-3.856133	粤	-99
-4.172403	粤剧	-99
-3.976108	粥	-99
-3.841409	粮	-99
-4.172403	粮棉	-99
-4.277138	粮食	-99
-4.142439	粱	-99
-4.277138	精	-99
-4.204587	精品	-99
-3.903558	精子	-99
-3.903558	精心	-99
-4.277138	精明	-99
-4.204587	精液	-99
-3.628335	精神	-99
-4.277138	精神文明	-99
-4.142439	精美	-99
-4.204587	精通	-99
-4.063258	糁	-99
-3.938319	糖厂	-99
-4.204587	糖果	-99
-4.142439	糙	-99
-4.204587	糜烂	-99
-4.172403	糠	-99
-3.903558	系	-99
-4.142439	系列	-99
-3.705747	系统	-99
-4.318531	素云	-99
-4.204587	索引	-99
-3.856133	紧张	-99
-3.938319	紧紧	-99
-4.088082	紧缺	-99
-4.172403	累	-99
-4.239349	累累	-99
-4.142439	繁	-99
-4.142439	繁殖	-99
-4.415441	纠正	-99
-4.088082	纠缠	-99
-3.399453	红	-99
-4.318531	红光	-99
-4.114411	红娘子	-99
-4.142439	红润	-99
-4.114411	红绸	-99
-4.318531	红绿	-99
-4.318531	红绿灯	-99
-3.920591	红色	-99
-4.172403	红颜薄命	-99
-3.197957	约	-99
-4.114411	约翰	-99
-3.920591	纯	-99
-4.142439	纯棉	-99
-4.114411	纯真	-99
-4.142439	纯粹	-99
-4.142439	纲	-99
-4.142439	纳	-99
-3.871373	纳入	-99
-4.088082	纳税	-99
-4.142439	纳税人	-99
-4.277138	纵	-99
-4.114411	纵横	-99
-4.204587	纵身	-99
-3.578168	纷纷	-99
-4.277138	纸	-99
-4.239349	纸张	-99
-4.318531	纸箱	-99
-3.887167	纹	-99
-4.172403	纺织	-99
-4.142439	纽约	-99
-3.856133	线	-99
-4.114411	练	-99
-3.586137	组	-99
-3.787052	组成	-99
-3.379012	组织	-99
-4.114411	组长	-99
-3.903558	细	-99
-4.172403	细嚼慢咽	-99
-4.204587	细致	-99
-3.976108	织	-99
-4.277138	终	-99
-3.685062	终于	-99
-4.142439	终日	-99
-4.277138	终止	-99
-4.142439	终身	-99
-4.204587	绍	-99
-3.467273	经	-99
-4.277138	经受	-99
-4.204587	经常	-99
-3.594255	经济	-99
-3.570343	经营	-99
-4.204587	经营者	-99
-4.204587	经贸	-99
-4.239349	经过	-99
-4.142439	经验	-99
-4.142439	绒	-99
-4.204587	结业	-99
-4.172403	结合	-99
-4.142439	结婚	-99
-4.114411	结实	-99
-3.54038	结束	-99
-3.498987	结果	-99
-4.142439	结石	-99
-3.938319	绘画	-99
-2.714305	给	-99
-4.277138	给予	-99
-4.277138	给养	-99
-4.017501	给女儿	-99
-4.172403	绝	-99
-4.204587	绝妙	-99
-4.172403	绝望	-99
-3.547679	统一	-99
-4.239349	绣	-99
-4.088082	继	-99
-4.114411	继承权	-99
-3.533201	继续	-99
-4.142439	绳	-99
-4.277138	绳子	-99
-3.976108	维也纳	-99
-3.787052	维吾尔	-99
-3.871373	维持	-99
-4.239349	维斯	-99
-4.142439	维特	-99
-4.277138	维生素	-99
-4.172403	绵长	-99
-4.204587	绷	-99
-3.800017	绸	-99
-4.142439	综合	-99
-3.813381	绾	-99
-3.345403	绿	-99
-4.172403	绿水	-99
-4.318531	绿色	-99
-4.239349	绿茵	-99
-4.277138	缔造	-99
-4.142439	缕缕	-99
-4.239349	编剧	-99
-4.114411	编委会	-99
-4.142439	编导	-99
-4.277138	编演	-99
-3.938319	缘份	-99
-4.114411	缠	-99
-4.204587	缠住	-99
-4.142439	缢	-99
-4.142439	缩	-99
-4.239349	缩小	-99
-3.976108	缫	-99
-4.114411	缴纳	-99
-4.142439	缸子	-99
-4.239349	缺	-99
-4.239349	缺乏	-99
-4.277138	缺血	-99
-4.204587	罅隙	-99
-4.142439	罐头	-99
-3.675078	网	-99
-4.088082	网点	-99
-4.239349	网管	-99
-3.871373	网箱	-99
-4.142439	网络	-99
-4.088082	罗宁	-99
-4.114411	罗家	-99
-4.204587	罗布	-99
-4.318531	罗干	-99
-4.364288	罗德	-99
-4.088082	罗本	-99
-4.277138	罗田	-99
-4.239349	罗马里奥	-99
-4.204587	罚款	-99
-4.142439	罢了	-99
-3.705747	罪	-99
-4.114411	罪犯	-99
-4.114411	罪状	-99
-4.088082	置于	-99
-3.619561	羊	-99
-4.318531	羊子	-99
-3.887167	美	-99
-3.628335	美元	-99
-3.841409	美军	-99
-3.369141	美国	-99
-4.142439	美地	-99
-4.142439	美好	-99
-4.142439	美学	-99
-4.142439	美容	-99
-4.172403	美术学院	-99
-3.887167	美洲	-99
-3.841409	美的	-99
-4.204587	美观	-99
-4.239349	羚羊	-99
-4.172403	羡慕	-99
-3.841409	群	-99
-3.610961	群众	-99
-4.142439	群众运动	-99
-4.172403	群体	-99
-4.239349	群峰	-99
-4.172403	羽毛球	-99
-3.956803	翁	-99
-4.277138	翘	-99
-4.204587	翟	-99
-4.114411	翠	-99
-4.142439	翻	-99
-4.114411	翻腾	-99
-4.277138	翻转	-99
-4.142439	翻阅	-99
-4.172403	耀邦	-99
-3.250345	老	-99
-4.277138	老一辈	-99
-3.750329	老人	-99
-4.204587	老伴	-99
-4.239349	老六	-99
-4.114411	老兵	-99
-3.827169	老农	-99
-4.172403	老区	-99
-4.172403	老大	-99
-4.142439	老太太	-99
-4.364288	老师	-99
-4.415441	老年人	-99
-4.088082	老文	-99
-4.114411	老曲	-99
-4.277138	老板	-99
-4.318531	老母	-99
-4.277138	老汉	-99
-4.142439	老爷们儿	-99
-4.114411	老爹	-99
-4.277138	老等	-99
-4.172403	老红军	-99
-4.277138	老规矩	-99
-3.841409	老远	-99
-4.172403	老马	-99
-4.172403	考	-99
-4.364288	考入	-99
-4.172403	考古	-99
-3.920591	考察	-99
-4.277138	考究	-99
-4.142439	考虑	-99
-4.239349	考试	-99
-4.277138	考验	-99
-3.594255	者	-99
-2.413815	而	-99
-4.318531	而上	-99
-3.225109	而且	-99
-3.827169	而又	-99
-4.277138	而已	-99
-3.903558	而成	-99
-4.239349	而是	-99
-4.318531	而行	-99
-4.172403	而论	-99
-4.277138	耐久	-99
-4.114411	耐用	-99
-4.142439	耕	-99
-4.114411	耕地	-99
-4.239349	耕耘	-99
-4.114411	耘	-99
-3.938319	耳	-99
-4.172403	耳语	-99
-4.239349	耶稣	-99
-4.239349	聂卫平	-99
-4.318531	聋	-99
-4.318531	聋哑	-99
-3.685062	职业	-99
-4.142439	职务	-99
-3.827169	职工	-99
-4.017501	联合	-99
-3.956803	联系	-99
-4.142439	联赛	-99
-3.610961	联邦	-99
-3.903558	聘	-99
-4.114411	聘用	-99
-4.239349	聚众	-99
-3.976108	聪儿	-99
-4.204587	聪明反被聪明误	-99
-4.415441	肃然	-99
-3.486022	肉	-99
-4.239349	肉眼	-99
-4.142439	肉食	-99
-4.277138	肖	-99
-4.204587	肝癌	-99
-3.871373	股	-99
-4.318531	肤色	-99
-3.675078	肥	-99
-4.204587	肥嘟嘟	-99
-4.239349	肩	-99
-4.172403	肩周炎	-99
-4.204587	肩膀	-99
-4.239349	肮脏	-99
-3.774463	肯定	-99
-3.492456	育	-99
-4.239349	育婴	-99
-3.938319	育秧	-99
-3.871373	胃	-99
-3.871373	背	-99
-4.239349	背后	-99
-4.239349	背面	-99
-4.114411	胜	-99
-4.204587	胜负	-99
-3.602527	胡	-99
-4.172403	胡耀邦	-99
-4.172403	胭脂	-99
-4.142439	胳膊	-99
-4.114411	胳膊肘	-99
-4.204587	胶卷	-99
-4.204587	胸前	-99
-2.929365	能	-99
-3.871373	能不能	-99
-4.114411	能人	-99
-3.871373	能力	-99
-4.277138	能否	-99
-3.455208	能够	-99
-4.318531	能治病	-99
-4.142439	能源	-99
-4.142439	能耐	-99
-3.903558	脆	-99
-4.114411	脆弱	-99
-4.277138	脏兮兮	-99
-3.800017	脑	-99
-4.204587	脑血管	-99
-3.887167	脑袋	-99
-3.813381	脖子	-99
-3.619561	脚	-99
-4.204587	脚下	-99
-4.204587	脚丫	-99
-4.172403	脚印	-99
-4.142439	脚底	-99
-4.204587	脚气	-99
-4.204587	脱位	-99
-4.172403	脱去	-99
-4.277138	脱落	-99
-4.204587	脱逃	-99
-3.750329	脸	-99
-4.277138	脸上	-99
-3.920591	脸色	-99
-4.277138	腋	-99
-4.142439	腋下	-99
-3.602527	腌	-99
-3.903558	腌菜	-99
-4.114411	腐蚀	-99
-4.114411	腔	-99
-3.602527	腕	-99
-4.239349	腰	-99
-4.142439	腰疼	-99
-4.114411	腰部	-99
-4.277138	腰酸腿疼	-99
-4.239349	腹中	-99
-4.277138	腾	-99
-4.142439	腾冲	-99
-4.142439	腿	-99
-4.239349	膜	-99
-4.204587	膝伤	-99
-4.239349	膺	-99
-3.762228	自	-99
-4.172403	自主	-99
-4.277138	自主经营	-99
-4.277138	自从	-99
-4.142439	自信	-99
-4.204587	自动化	-99
-4.142439	自如	-99
-3.051359	自己	-99
-4.364288	自己的房间	-99
-4.142439	自已	-99
-4.142439	自愿	-99
-4.142439	自我	-99
-4.204587	自杀	-99
-3.871373	自然	-99
-4.114411	自然数	-99
-4.114411	自然条件	-99
-4.142439	自然界	-99
-3.813381	自由	-99
-4.114411	自相矛盾	-99
-4.277138	自立	-99
-3.920591	自豪	-99
-4.277138	自负盈亏	-99
-3.903558	自身	-99
-4.088082	臭名昭著	-99
-3.555103	至	-99
-3.903558	至于	-99
-4.415441	至今	-99
-3.938319	至少	-99
-4.277138	至诚	-99
-4.239349	致死	-99
-4.172403	致辞	-99
-4.142439	舀	-99
-4.172403	舅家	-99
-4.114411	舆论	-99
-4.204587	舍	-99
-4.114411	舍去	-99
-3.675078	舞	-99
-4.114411	舞会	-99
-4.142439	舞团	-99
-4.142439	舟山	-99
-4.142439	航	-99
-4.142439	航务	-99
-4.142439	航空兵	-99
-4.017501	航空器	-99
-3.871373	航道	-99
-3.675078	般	-99
-4.239349	舰船	-99
-4.277138	舱	-99
-3.498987	船	-99
-3.512351	艘	-99
-4.239349	良好	-99
-3.800017	良种	-99
-4.318531	艰涩	-99
-4.318531	艰险	-99
-3.695282	色	-99
-4.142439	色彩	-99
-4.172403	艳福	-99
-3.871373	艳阳	-99
-3.920591	艺术	-99
-4.277138	艺术家	-99
-3.871373	艺术性	-99
-4.142439	艾	-99
-4.142439	艾滋病	-99
-3.841409	艾迪	-99
-4.204587	节	-99
-4.364288	节目	-99
-4.142439	节目单	-99
-4.277138	节约	-99
-4.017501	节能	-99
-4.114411	芍药	-99
-4.239349	芒	-99
-4.239349	芬芳	-99
-3.841409	芭蕾舞团	-99
-4.277138	芮	-99
-4.142439	芯	-99
-3.461198	花	-99
-4.142439	花园	-99
-4.142439	花样	-99
-3.841409	花生	-99
-3.871373	花纹	-99
-4.172403	花都	-99
-4.142439	花鞋	-99
-4.239349	花香	-99
-4.277138	芳	-99
-4.172403	芽	-99
-4.114411	苍	-99
-4.142439	苍天	-99
-4.204587	苍苍	-99
-3.903558	苍蝇	-99
-3.533201	苏	-99
-4.318531	苏军	-99
-4.277138	苏和	-99
-3.976108	苏州	-99
-4.114411	苏联	-99
-4.172403	苑	-99
-3.594255	苗	-99
-4.277138	苗族	-99
-4.415441	苗木	-99
-4.204587	苦战	-99
-4.172403	苦斗	-99
-3.619561	英	-99
-3.938319	英军	-99
-4.318531	英勇	-99
-3.570343	英国	-99
-4.277138	英文	-99
-4.318531	英方	-99
-3.384032	英雄	-99
-4.172403	茁壮成长	-99
-4.204587	范	-99
-3.920591	范围	-99
-4.204587	茅塞顿开	-99
-4.114411	茨	-99
-4.114411	茫茫	-99
-3.871373	茬	-99
-4.142439	茵茵	-99
-3.774463	茶	-99
-4.239349	茶人	-99
-3.871373	荀	-99
-3.404717	草	-99
-4.114411	草图	-99
-4.114411	草帽	-99
-4.142439	草拟	-99
-4.318531	草木	-99
-4.277138	草草	-99
-4.142439	草药	-99
-4.239349	荒	-99
-4.172403	荒原	-99
-4.239349	荒坡	-99
-4.142439	荒山野岭	-99
-4.114411	荒漠	-99
-4.277138	荒诞	-99
-4.239349	荟萃	-99
-4.114411	荡	-99
-4.114411	荣生	-99
-4.172403	荣登	-99
-4.318531	荣誉	-99
-3.841409	荧光灯	-99
-3.570343	药	-99
-4.172403	药业	-99
-4.277138	药厂	-99
-3.727466	药品	-99
-4.364288	药师	-99
-4.318531	药效	-99
-4.172403	药物	-99
-4.204587	莉莉	-99
-4.142439	莎莉	-99
-4.172403	莫	-99
-4.239349	莫尼卡	-99
-3.976108	莫拉	-99
-4.239349	莫高窟	-99
-4.204587	莲藕	-99
-3.738747	获	-99
